#define NUM_CLASSES 10
#define NUM_FEATURES 784
double weights[NUM_CLASSES][NUM_FEATURES] =  {
   {0.0000000000, 0.0000000000, 0.0000000000, 0.0000000000, 0.0000000000, 0.0000000000, 0.0000000000, 0.0000000000, 0.0000000000, 0.0000000000, 0.0000000000, 0.0000000000, 0.0032045607, 0.0047929343, 0.0040241075, 0.0040241075, 0.0000000000, 0.0000000000, 0.0000000000, 0.0000000000, 0.0000000000, 0.0000000000, 0.0000000000, 0.0000000000, 0.0000000000, 0.0000000000, 0.0000000000, 0.0000000000, 0.0000000000, 0.0000000000, 0.0000000000, 0.0000000000, 0.0179495822, -0.0402083542, 0.0043368640, 0.0218346091, -0.0001380975, 0.0433401931, -0.0017261335, -0.0001437662, 0.0344427754, 0.0446383360, -0.0770832185, 0.0637918801, 0.0027297412, 0.0606523316, -0.1020215051, 0.0052846668, 0.0161752387, 0.0091203268, 0.0049448218, 0.0076754617, 0.0000000000, 0.0000000000, 0.0000000000, 0.0000000000, 0.0000000000, 0.0000000000, 0.0040426485, 0.0082170976, 0.0126413162, 0.0242956662, -0.0150007554, 0.0378076068, 0.0004360445, -0.0716264427, 0.0240566994, -0.0184667453, -0.1317591476, 0.0500755524, -0.0913824839, -0.1351879061, -0.0386463765, -0.1467655587, -0.1133612694, 0.0314310525, -0.0921021341, 0.0083836014, 0.0150519242, -0.0030957194, -0.0001573811, 0.0005274582, 0.0000000000, 0.0000000000, 0.0000000000, 0.0000000000, 0.0075317030, -0.0193911698, 0.0097641795, 0.0342288083, -0.0678128758, -0.0861799181, 0.0464939700, -0.0841224108, -0.0830083705, 0.0295521079, -0.0712481671, 0.0364193233, -0.0373777493, -0.0300787238, -0.0086880648, -0.0176099393, -0.0386399791, -0.0564987803, 0.0144343543, -0.0375174339, -0.0276253860, 0.0110560435, -0.0068764516, 0.0136347966, -0.0286957959, 0.0000000000, 0.0000000000, 0.0097969587, 0.0154914455, -0.0077537777, -0.0151497805, -0.0845264115, -0.0046569181, -0.0181298399, -0.0149358594, 0.0466075217, -0.0665507953, 0.0486048188, -0.0753243311, 0.0832129699, -0.0818863645, 0.0897139292, -0.1195027363, 0.0618842974, -0.0066347235, 0.0076104312, 0.0052752298, -0.0064125116, 0.0008117557, 0.0085533162, -0.0342544752, 0.0258073067, -0.0111302809, 0.0060836639, 0.0000000000, 0.0000000000, -0.0044674658, 0.0024873984, 0.0011728222, -0.0812027633, 0.1230712685, -0.0410986204, 0.0216064116, -0.0218490574, 0.0971544900, 0.0067876046, -0.0713099194, 0.0385784452, 0.0059600064, 0.0532486824, 0.0081409934, 0.0079948597, 0.0228719683, -0.0114607302, -0.0152054913, -0.0277268302, -0.0293470573, -0.0092731860, 0.0072218241, -0.0561439019, 0.0143310233, 0.0006203462, 0.0000000000, 0.0032303076, -0.0251586666, 0.0188194376, -0.0028803155, -0.0331215305, -0.0786764705, -0.0405501306, 0.0566208816, -0.1360802090, -0.0317035097, -0.0294088962, -0.0204784230, 0.0640085601, -0.0175073118, 0.0019905399, 0.0021889068, 0.0014338286, 0.0314964191, -0.0123862634, -0.0029409464, 0.0704592308, 0.0546959466, -0.0132496797, -0.0667989710, -0.0788976944, -0.0316862000, -0.0036499623, -0.0057327945, 0.0014969242, -0.0228587725, -0.0187323586, 0.0034612893, 0.0546170791, 0.0704548366, 0.0074487807, -0.1099854562, 0.0606778164, -0.0120517376, 0.0723272274, -0.0626275578, 0.0232024202, 0.0457562351, -0.0355380750, -0.0133298084, 0.1253000247, 0.0038026894, 0.0687657780, -0.0142826479, -0.0428986489, -0.0507760105, 0.0234928793, -0.0231999421, -0.0077496588, -0.0351159054, 0.0226085870, 0.0269096816, -0.0076453131, 0.0192674407, 0.0488868009, -0.0466829673, -0.1039178864, 0.0097857139, -0.0038314660, 0.0558032465, -0.0087328230, 0.0039353281, -0.0665268019, 0.1038454704, -0.0689639369, 0.0704078701, 0.0261867681, 0.1073367164, 0.0160096227, 0.0444525629, -0.0186592426, 0.0471481548, 0.0489112238, 0.0499426353, 0.0032137722, -0.0447958462, -0.0894684276, -0.0338657194, -0.0054742635, -0.0049337151, 0.0076817652, -0.0382323276, 0.0265886798, -0.0541478361, 0.0512065902, -0.0254465758, 0.0090639250, 0.0029767272, -0.0056785841, 0.0818062591, -0.0689448113, -0.0858767486, 0.1104544257, 0.0054849250, -0.0435690991, 0.0234952164, 0.0615263926, 0.0018469658, 0.0759458142, 0.0487079063, -0.0256090606, -0.0787981210, 0.0222245447, -0.0219056260, -0.0308589032, -0.0381720053, 0.0209463208, 0.0185049607, -0.0956369090, 0.1852112167, -0.2135357286, 0.0627053852, 0.0208253865, 0.0235286407, 0.0117408283, -0.0748336809, 0.0632288926, -0.0377916344, 0.1089901559, 0.0049793553, -0.0579136833, 0.0354800379, 0.0531134131, 0.0563995824, 0.0480404432, 0.1332315184, -0.0285365403, 0.0011698460, 0.0144075002, 0.0914325344, 0.0359946592, 0.0063091212, -0.0136845124, -0.0467177700, 0.0209022304, -0.0239922132, 0.1740544152, -0.2471269284, 0.1425704603, -0.0712650451, -0.0684025872, 0.0187696740, 0.0020542481, 0.0439107161, -0.0860553594, -0.0306047052, 0.0229230883, -0.0902507211, 0.0183597296, -0.0988924109, -0.0782060812, -0.1189985064, 0.0781301665, -0.0916807632, 0.0446324698, 0.0624195166, 0.0378349633, 0.0052061876, 0.0172283935, -0.0189405671, -0.0338438312, -0.0017010012, 0.0171803192, 0.0129048306, -0.0590703280, -0.0175635532, -0.0747798727, -0.0655462862, 0.0416803436, 0.0229493127, -0.0356495099, 0.0199613385, 0.0478764171, -0.0291058697, 0.0188138677, 0.0850345846, 0.0157479721, -0.1082570979, -0.1255530751, -0.0144900444, -0.0158555520, -0.0050254524, 0.0080973223, 0.0549677245, 0.0225881717, 0.0275657705, -0.0193987569, 0.0563291798, -0.0039467925, -0.0889330272, 0.0194878974, 0.0083981230, 0.0210401895, 0.0069068593, 0.0257016656, 0.1050094141, -0.0979227122, 0.0924786515, -0.0057613916, 0.0242789320, 0.0183117383, 0.0799715665, 0.0040688734, -0.0542791504, -0.1801230948, 0.0144105134, -0.1601032840, -0.0841358846, -0.0201644608, 0.0075864460, 0.0163013644, -0.1437705119, -0.0241368842, 0.0533133717, 0.0394326665, -0.0156381896, 0.0088441393, -0.0528776296, 0.0087216360, 0.0030257305, 0.0059782947, 0.0048145405, -0.0508760712, -0.0651630774, 0.0929645906, -0.0053648088, 0.1350945970, -0.0291296988, 0.0158538859, -0.0363375343, 0.0255140865, 0.0958976970, 0.0627800366, -0.3568773895, 0.1170046731, -0.1956157616, 0.0300347537, -0.0175050465, -0.0454897768, 0.0885569146, 0.0497967488, -0.0346781908, 0.0216994459, -0.0198767404, 0.0060450586, -0.0042259830, 0.0015986720, 0.0035739521, -0.0030039740, 0.0017771495, -0.0212286565, 0.0301195739, -0.0108853052, -0.0694289716, 0.0686139149, 0.0518749049, 0.0687935741, 0.0903551325, -0.0629811295, -0.0036608771, -0.0611541393, -0.2387304532, -0.0066768495, -0.1136625164, -0.0219140405, -0.0060909609, -0.0250847828, 0.0202071108, -0.0259809694, 0.0379153276, 0.0152577659, 0.0548944452, -0.0064060641, 0.0069165321, 0.0073450416, 0.0032327886, 0.0048955420, 0.0200035981, -0.0175045890, -0.0169064415, 0.0503504415, 0.0131663364, 0.0359533324, 0.0514062748, 0.0497431302, 0.0185268411, 0.0718119877, -0.0337075593, -0.2365163236, -0.1207328124, -0.0108113342, -0.0722308461, 0.0263081728, -0.0484346821, 0.0009815594, -0.0146994142, 0.0384831044, -0.0701393005, -0.0120268431, -0.0240132610, -0.0488430598, -0.1222382374, 0.0328256477, 0.0000000000, 0.0130293666, -0.0084594491, -0.0108401210, 0.0283981987, 0.0061240706, 0.0586733953, 0.0190529083, -0.0295064946, 0.0427923811, 0.0488656593, -0.0989279575, 0.1250601561, -0.1794869304, -0.0684718472, -0.0623036044, -0.0328138555, 0.0307427360, 0.0133736772, 0.0203154894, 0.0744249561, -0.0466901285, 0.1121798130, -0.0117814302, 0.0343044274, 0.0209092671, -0.0141602129, 0.0138867295, 0.0031069295, -0.0009219543, 0.0118676530, -0.0268293422, -0.0134804424, -0.0145612623, -0.0454577580, -0.0262011013, 0.0783602138, 0.0538001529, 0.0426147259, 0.0508896324, -0.0605835298, -0.1746121573, -0.0336598607, -0.0088589490, -0.0729164013, -0.0189668993, -0.0368560234, -0.0264689673, -0.0959608400, -0.0124002480, -0.0396483470, -0.0179895016, -0.0144400330, -0.0165661789, -0.0059800558, -0.0285569293, 0.0071855038, 0.0031015960, 0.0075820504, -0.0436064057, -0.0387641141, -0.0275074699, 0.0408478016, 0.0556549573, 0.0131539895, -0.0563223505, 0.0297872189, -0.0130214582, 0.1298044197, -0.0789536295, -0.0320588578, -0.0182389047, 0.0130197134, -0.0270005693, -0.0030049591, -0.0688666022, 0.0508632217, -0.0173406430, 0.0358670387, -0.0331869324, 0.0162292519, -0.0466101315, 0.0190757524, 0.0176452739, 0.0000000000, 0.0144436562, -0.0381401653, -0.0018260664, 0.0489840553, 0.0413479152, -0.0315373596, -0.0177670388, 0.0548617033, -0.0345176183, 0.0697794438, 0.0690323786, 0.0193661086, 0.0434158806, -0.1063894466, 0.0424394383, -0.1129461825, 0.0056786206, 0.0546718246, -0.0111495971, -0.0349441725, 0.0474935299, -0.0208513369, -0.0159976895, -0.0132842472, -0.0148525181, -0.0218099074, 0.0093863284, 0.0065657820, 0.0160846814, -0.0214164042, 0.0065688639, -0.0091646090, -0.0338330303, 0.0113673635, 0.0038312210, -0.0748250908, 0.0490684778, 0.0387386290, 0.0786324450, 0.0178530259, -0.0050097242, -0.0175986040, -0.0395005249, 0.0877326072, -0.2005182624, -0.0262324671, -0.0313819986, -0.0614269896, -0.1009216148, 0.0312163584, -0.0770501142, 0.0536119127, -0.0880829625, 0.0623465605, 0.0101229816, 0.0065657820, -0.0096220880, 0.0044001594, -0.0142803416, -0.0411913482, 0.0097717004, 0.0201693165, -0.0179715860, 0.0249815397, 0.0510626366, -0.0197389439, 0.0019690066, -0.0071504602, 0.1620663212, -0.0626483804, -0.0152225063, 0.0238132637, 0.0730283977, -0.1067655082, 0.0528830414, 0.0755186633, -0.0312524650, 0.0704493316, 0.0057492586, -0.0371048823, 0.0244913890, 0.0077708303, 0.0101229816, 0.0000000000, 0.0000000000, 0.0072925007, -0.0159943763, -0.0700376817, 0.0035655537, -0.0024783256, 0.0303437200, -0.0669280156, 0.0215932977, 0.0540445691, 0.0390424267, 0.0393213390, -0.0147403438, 0.0824556773, -0.0044979657, -0.0951432316, 0.0916260683, -0.0806402161, -0.0790689322, -0.0193984697, -0.0731786523, 0.0011590427, -0.0046159247, -0.0156186778, 0.0272639186, -0.0090654787, 0.0000000000, 0.0000000000, 0.0000000000, -0.0163514023, 0.0008700040, 0.0359375924, 0.0142617602, -0.0181424879, -0.0067046670, -0.0202790321, 0.0358796398, 0.0461426126, -0.1200963374, 0.0523342272, -0.0183204319, 0.0152462202, 0.0197199721, -0.1067256810, 0.0853644212, 0.0427778078, -0.0469865312, -0.0505563708, -0.0437448868, 0.0415595000, -0.0376098882, 0.0097330738, -0.0567866213, 0.0077149017, 0.0000000000, 0.0000000000, 0.0000000000, 0.0120194535, 0.0178098414, -0.0458538072, -0.0358379036, -0.0978104316, -0.0048630954, -0.0739563850, -0.0360057605, -0.2774298131, 0.1355662446, -0.2432213965, -0.0938774134, -0.1287731134, -0.1340637919, -0.1051985398, -0.0103239138, -0.2774392886, -0.0746029849, -0.0444042283, -0.0279415708, -0.0390907457, -0.0185252317, 0.0075569230, 0.0101378008, 0.0060043089, 0.0000000000, 0.0000000000, 0.0000000000, 0.0000000000, -0.0002612521, 0.0298830527, 0.0303954135, -0.0066188973, -0.0528621978, -0.0245225304, -0.0546626103, -0.0665769099, -0.1018168928, 0.0068772409, -0.0974284024, -0.0488058090, -0.1134418131, -0.1020107408, -0.1136501016, -0.0641742043, 0.0625313078, -0.0099967318, -0.0199955378, 0.0138664711, 0.0150802222, -0.0001264395, 0.0087645738, 0.0000000000, 0.0000000000, 0.0000000000, 0.0000000000, 0.0000000000, 0.0000000000, 0.0141627141, -0.0095933624, 0.0089079632, 0.0013512503, 0.0165051123, -0.0061121286, -0.0030689849, 0.0103214113, 0.0085086965, -0.0179503494, 0.0044598759, 0.0094261899, 0.0033794470, 0.0322322993, 0.0052078116, 0.0375121886, 0.0121641260, -0.0178272161, -0.0029717111, 0.0082543623, 0.0000000000, 0.0000000000, 0.0000000000, 0.0000000000},
   {0.0000000000, 0.0000000000, 0.0000000000, 0.0000000000, 0.0000000000, 0.0000000000, 0.0000000000, 0.0000000000, 0.0000000000, 0.0000000000, 0.0000000000, 0.0000000000, 0.0041416402, 0.0063410643, 0.0054526231, 0.0054526231, 0.0000000000, 0.0000000000, 0.0000000000, 0.0000000000, 0.0000000000, 0.0000000000, 0.0000000000, 0.0000000000, 0.0000000000, 0.0000000000, 0.0000000000, 0.0000000000, 0.0000000000, 0.0000000000, 0.0000000000, 0.0000000000, -0.0067841675, 0.0071904345, 0.0047392966, 0.0132720282, -0.0039648337, 0.0099184073, 0.0082150368, 0.0172845631, 0.0102353720, 0.0143276672, -0.0046591983, 0.0148432213, -0.0330268518, 0.0010921279, 0.0196031770, 0.0124755322, 0.0057918568, 0.0068467736, 0.0146443484, 0.0062635786, 0.0000000000, 0.0000000000, 0.0000000000, 0.0000000000, 0.0000000000, 0.0000000000, 0.0009917562, 0.0037237700, 0.0099745407, 0.0204559584, 0.0242775421, 0.0239798209, -0.0097073466, -0.0108785689, -0.0105058277, -0.0087561586, -0.0668036169, 0.1178512609, -0.0886778853, 0.0932215396, -0.0028419459, 0.0710301964, -0.0452430516, 0.0646406828, -0.0405787788, 0.0122022157, -0.0036112860, -0.0136344807, 0.0170822087, -0.0053053405, 0.0000000000, 0.0000000000, 0.0000000000, 0.0000000000, 0.0109355757, 0.0101186596, 0.0156703596, -0.1426071174, 0.0140873766, 0.0460754835, -0.0546068211, -0.0355576368, -0.0373129268, -0.1114260928, -0.0319539956, -0.0091664105, -0.0929439407, 0.0012588677, -0.0448585556, 0.0096014221, -0.0893356248, 0.0109573295, -0.0327089336, -0.0116969967, -0.0021680814, -0.0080676451, -0.0067137167, 0.0409377953, 0.0100830746, 0.0000000000, 0.0000000000, 0.0120859236, 0.0330004261, -0.0404908279, -0.0045595973, 0.0368640111, -0.0275662962, -0.1071804949, 0.1069485954, -0.0300122865, 0.0178066297, -0.0132234720, -0.0223067343, 0.0076747898, 0.0149548263, -0.0469662979, -0.0053706278, -0.0076200067, -0.0298527245, 0.0164059207, -0.0086040948, 0.0131276029, -0.0233669732, 0.0117625922, -0.0479886470, -0.1181938718, 0.0363000665, -0.0105630761, 0.0000000000, 0.0000000000, 0.0006080337, 0.0343903668, 0.0058569553, 0.0614691004, 0.0089779648, -0.0436530469, -0.0606330912, -0.0677822057, -0.0291803845, -0.1062687668, -0.0902560806, -0.0350861712, -0.0803766261, 0.0407636641, -0.0428270374, -0.0708950358, -0.0203171694, -0.0136757633, -0.0163287249, 0.0143746863, 0.0468693141, -0.0000523871, 0.0622860159, -0.0546674874, 0.0026961390, 0.0076315469, 0.0000000000, 0.0139839924, -0.0287620166, -0.0019337702, -0.0137702862, -0.1211413610, 0.0928243076, -0.0616155953, -0.0489553566, -0.1019436163, -0.0088022960, 0.0404193700, -0.0601157756, -0.0230713456, -0.0341998288, -0.0988367313, -0.0677972443, -0.0767652433, 0.0104101862, -0.0453891085, -0.0175540098, -0.0144210602, -0.0524781214, 0.0384205621, -0.0647130628, -0.1111485704, 0.0195968340, 0.0161827438, 0.0128092647, -0.0328251768, -0.0223904137, -0.0809361831, 0.1675453813, -0.0454523105, -0.0996475571, 0.1001333698, -0.1379368127, 0.0093278880, -0.0225483967, -0.0998499866, 0.0414108258, -0.0770477135, -0.0023974073, -0.0798158661, 0.0312039998, -0.0194909998, -0.0468999344, 0.0046159943, 0.0580150303, 0.0470360775, -0.0372704104, -0.0201462418, -0.0551554552, -0.0866031016, 0.0560896850, -0.0162228104, 0.0033778210, 0.0054376715, 0.0319620339, -0.0371030802, -0.0094042523, 0.0065196359, -0.1313231354, -0.0350664957, -0.0263107398, -0.1339818764, -0.0019663287, -0.0626444121, 0.0145932210, 0.0214696012, -0.0164629991, 0.0048588273, -0.0908354981, 0.0623695788, -0.0038999331, 0.0219221665, -0.0928626438, -0.0357009257, 0.0266430377, -0.0209989308, -0.1364075619, -0.0698256561, 0.0336554985, 0.0108758361, 0.0019406449, -0.0699548633, 0.0349534916, 0.0194108451, 0.0268071005, -0.1425344800, -0.0034532754, 0.1233962018, -0.0060547529, -0.0084872590, -0.0257772818, 0.0018278603, -0.0191278464, 0.0223464319, 0.0332947120, 0.0708856014, 0.0168981484, -0.0661021033, 0.0307305011, -0.0517918593, -0.0292141206, -0.0114792446, 0.0020498394, -0.0994478414, 0.0468837120, -0.1601495572, 0.0291542125, -0.0090909789, 0.0063353963, 0.0488597379, 0.0193159548, -0.0478267806, -0.0677489833, -0.0630416850, -0.1182836998, -0.0723557865, 0.0373820502, -0.0262117840, 0.0204756356, 0.0252766300, 0.0145601531, 0.0447443599, 0.1008003649, 0.0829699561, 0.0529258841, 0.0552688590, -0.0998219162, -0.0064653381, -0.0693452318, -0.0106009046, 0.0161841049, 0.0075636026, -0.1412071949, 0.0189922126, -0.0391936212, 0.0460586877, 0.0149938314, -0.0041168061, 0.0368105418, -0.0540436268, 0.0514648576, -0.0123952439, -0.0962370567, -0.1080326671, -0.0700700842, -0.0970333640, -0.0206477100, -0.0290778572, -0.0673259483, 0.0512336847, 0.0461833909, 0.1251109830, 0.0317603241, -0.0115966487, 0.0075487425, -0.0153498789, 0.0228544209, 0.0142386388, -0.0813227027, 0.0096816565, -0.0512311643, -0.0325047605, -0.0037451687, -0.0001208133, 0.0109477197, 0.0194279102, -0.1043336899, 0.0313164138, -0.0039388639, -0.0949491394, 0.0882490425, 0.0627047559, -0.0658573276, 0.0361876383, -0.0620310487, -0.0632069848, 0.0211091432, 0.0217326630, 0.1253157894, 0.0905252227, -0.0271909646, 0.0260395173, 0.0204770434, -0.0742206596, -0.0047675195, -0.0361920218, -0.0599686265, 0.0890684645, 0.0441713710, -0.0273203099, -0.0479036268, 0.0033740247, 0.0138263462, 0.0156902719, -0.0203131024, 0.0027767324, -0.0015071438, -0.0539030800, 0.1130619931, 0.0524948994, 0.0018849561, 0.0257624622, -0.1296455525, -0.0659577224, 0.0023262579, 0.0036778555, 0.0873044733, 0.0221258264, 0.0520380180, 0.0693933758, -0.0711277065, -0.0094518730, -0.0074067475, 0.0021241962, -0.0411950848, 0.0418057033, -0.0981829700, -0.0889609099, 0.0051602567, -0.0001335091, 0.0028673920, 0.0076586420, -0.0075622145, -0.0260772595, 0.0982651449, 0.0045175946, 0.0381981415, -0.0807771871, 0.0333851578, -0.0654150872, -0.0843678467, -0.0749775477, -0.0334108618, 0.0108518547, 0.0787235235, 0.0511456216, -0.0128227113, -0.0085602883, -0.1715081561, -0.0092382881, 0.0026394848, -0.0337893194, 0.0309457152, -0.0374029479, 0.1229397281, 0.0064192444, 0.0000459177, 0.0048847773, 0.0040215999, 0.0057835748, 0.0225054224, 0.0350205604, -0.0016582266, -0.1126475211, -0.0739543587, -0.0100782738, 0.0500569945, -0.0450672226, -0.1402190905, -0.0156144787, 0.0597829956, 0.0577755705, 0.0747686641, -0.0202341816, 0.0971406608, -0.0665286993, -0.0016422855, -0.0935893082, -0.0328256668, -0.0303269392, -0.0354846407, -0.0472989545, -0.0155233627, -0.0486094984, 0.0186474643, -0.0018250925, 0.0064778249, 0.0070895777, 0.0036803055, -0.0221461044, 0.0591987300, -0.0170689323, 0.0092157603, -0.0274353608, -0.1061162103, 0.0850690670, -0.0412765568, -0.0068290601, -0.0939423576, -0.0132177371, 0.0650839870, -0.0826736574, 0.0161580160, -0.1470372068, -0.0851807679, -0.0789667258, -0.0433005155, 0.0155361287, -0.0417420774, -0.0605478028, 0.0755648820, -0.0496892854, -0.0210061196, 0.0178329516, 0.0000000000, 0.0117977743, -0.0075754426, -0.0307651528, 0.0198990015, -0.0554387057, -0.0034751731, 0.0668366368, 0.0192949887, -0.0606684420, -0.0007015664, -0.0616221635, 0.0463837862, 0.0765626302, 0.0751886415, 0.0398003819, -0.0014099332, -0.1140139888, -0.0184108593, 0.0323840085, 0.0149820382, -0.0279341379, 0.0937392234, -0.0580939756, 0.0505648284, -0.0807221757, 0.0032376862, -0.0027776343, 0.0000493847, -0.0047310086, 0.0112681589, 0.0012037156, -0.0389865825, -0.0778426235, -0.1766950445, -0.1209478970, 0.0031500739, -0.0137832436, -0.1091254072, -0.0277999684, -0.0133888355, -0.0324734207, 0.0617278085, -0.0578312322, -0.1903520693, 0.0640957186, -0.0053073109, -0.0548674065, 0.0047109453, 0.0068788218, -0.0406996522, -0.1114171330, 0.0700190131, -0.0124218043, -0.0008305137, 0.0072704516, 0.0126533557, 0.0033040740, 0.0017307983, 0.0154247174, 0.0044611630, -0.1636726903, 0.0313298970, 0.0595248337, -0.0692909551, 0.0416023603, 0.0145001698, -0.0427244980, -0.0552227296, 0.0256027107, -0.0431872032, 0.0558079874, 0.0883520559, -0.1258728326, -0.0313299906, 0.0306150562, -0.0054853612, 0.0444990280, -0.0329951630, -0.0199667041, 0.0195441244, -0.0194820016, 0.0045887204, 0.0079076813, 0.0000000000, 0.0003920091, 0.0189525743, -0.0654433912, 0.0310343120, -0.2942555177, 0.0037317136, -0.0607349639, 0.0104919083, 0.0342866731, -0.0097556881, 0.0813789170, 0.0695623500, -0.0230220116, -0.0156799494, -0.1031587249, 0.0262711744, 0.0245822478, 0.1022923352, 0.0588094789, 0.0055415899, -0.0597855664, 0.0425075071, -0.0020663588, 0.0078841979, -0.0204015644, 0.0325066460, 0.0072955407, 0.0130508719, 0.0074272747, -0.0157012280, 0.0524350601, -0.0042810146, 0.0598976321, 0.0669504499, 0.0511652594, 0.0366830830, -0.0430567368, 0.0780043625, -0.0622691957, -0.0137325165, 0.0107625022, 0.0196228236, 0.0320714548, 0.0348092219, -0.0167817557, 0.0517323239, -0.0961980050, -0.0095575218, 0.1135645137, -0.0606768322, -0.2012862238, 0.1468067978, -0.0155116785, -0.0066705277, 0.0095442871, 0.0130508719, -0.0061994574, 0.0065534402, -0.0167121298, 0.0180057097, 0.1366390319, -0.0469161721, -0.0390596792, -0.0029793670, 0.0311401499, -0.0418768580, -0.0237783737, -0.0872850762, -0.0944613622, 0.0264713134, -0.0195337732, -0.0141457228, -0.0022031747, 0.1385266233, -0.0080892735, 0.0658749387, 0.0435969313, -0.1001539700, 0.0481827870, -0.0650759073, 0.0864996886, 0.0009257207, 0.0095442871, 0.0000000000, 0.0000000000, 0.0272816274, -0.0531930571, -0.0562784396, -0.0140585008, 0.0279634011, 0.0193788637, -0.0306609084, -0.0065407575, -0.0418524271, -0.0475473222, 0.0275815278, -0.0054126571, -0.0953489393, 0.0359255452, 0.0133183139, 0.0695257411, -0.1140831445, 0.0090079760, -0.0368504920, -0.0302191071, 0.0935406909, -0.1049847433, -0.0335377325, 0.0049299345, 0.0203269576, 0.0000000000, 0.0000000000, 0.0000000000, 0.0106752691, -0.0024197465, -0.0124997231, -0.0078426756, -0.0065902976, 0.0109618793, -0.0503101026, 0.0072526653, -0.0244531425, -0.0270487005, -0.0381784249, -0.0752592255, -0.0478246439, 0.0013148832, -0.1276988847, 0.0496737428, -0.0266215687, 0.0945640099, -0.0086564130, 0.0048491031, -0.0536166383, 0.0497642600, -0.0056424910, 0.0117794341, 0.0488436241, 0.0000000000, 0.0000000000, 0.0000000000, 0.0049106314, -0.0049046117, 0.0172404061, -0.0622039114, 0.0223836037, -0.0971340205, -0.0551989007, -0.0863233795, -0.1826246343, -0.2085307936, -0.0860865276, -0.0980547519, -0.0348259359, -0.1604800166, -0.1260189421, -0.1006794434, -0.1183097087, -0.0748650836, -0.0308724685, -0.0300169323, -0.0042239588, 0.0090182354, 0.0086002108, -0.0072995303, -0.0299929400, 0.0000000000, 0.0000000000, 0.0000000000, 0.0000000000, -0.0002630733, 0.0123948997, -0.0220545214, -0.0198843921, 0.0012616403, -0.0240656040, -0.0500164457, -0.0152031557, -0.0403347220, -0.1658737039, -0.1165545363, -0.0883681405, -0.0370876703, 0.0135685917, -0.0417454890, -0.0033442159, -0.0003039446, -0.0129710877, 0.0360501778, 0.0058788800, -0.0351008765, 0.0134251291, 0.0049064836, 0.0000000000, 0.0000000000, 0.0000000000, 0.0000000000, 0.0000000000, 0.0000000000, 0.0050301650, 0.0189114336, -0.0310660910, 0.0333260084, -0.0086957888, 0.0144706149, -0.0045052695, -0.0238219047, 0.0436813883, 0.0162326193, 0.0205020568, 0.0250348928, -0.0157875317, 0.0296060087, -0.0579960637, 0.0286299754, -0.0052052580, -0.0016175950, -0.0066712845, 0.0100794311, 0.0000000000, 0.0000000000, 0.0000000000, 0.0000000000},
   {0.0000000000, 0.0000000000, 0.0000000000, 0.0000000000, 0.0000000000, 0.0000000000, 0.0000000000, 0.0000000000, 0.0000000000, 0.0000000000, 0.0000000000, 0.0000000000, 0.0015580927, 0.0050821709, 0.0066834687, 0.0066834687, 0.0000000000, 0.0000000000, 0.0000000000, 0.0000000000, 0.0000000000, 0.0000000000, 0.0000000000, 0.0000000000, 0.0000000000, 0.0000000000, 0.0000000000, 0.0000000000, 0.0000000000, 0.0000000000, 0.0000000000, 0.0000000000, 0.0031037239, 0.0039073183, -0.0041785660, 0.0016311460, 0.0026519087, -0.0093556613, 0.0054234545, 0.0056900969, -0.0193147889, -0.0155534485, 0.0050632960, -0.0092056631, 0.0145544985, -0.0113914167, 0.0010452115, -0.0293699376, -0.0026319477, -0.0006276973, 0.0041475929, -0.0012713557, 0.0000000000, 0.0000000000, 0.0000000000, 0.0000000000, 0.0000000000, 0.0000000000, 0.0022804182, -0.0019118267, 0.0031330572, -0.0089072387, 0.0154028967, -0.0128846188, -0.0037108883, 0.0079279557, -0.0295391120, -0.0042520633, 0.0003590597, -0.0172451774, -0.0162568820, 0.0005160121, -0.0256110743, -0.0127048703, -0.0105537799, -0.0243607797, -0.0234271835, 0.0034876384, -0.0349593570, 0.0188267499, 0.0091770914, -0.0017368152, 0.0000000000, 0.0000000000, 0.0000000000, 0.0000000000, 0.0033171760, 0.0066375154, -0.0056243250, 0.0017834402, -0.0093277177, 0.0115962773, -0.0188751778, 0.0252308652, 0.0058990320, 0.0041914952, 0.0006431056, 0.0155412931, -0.0056675987, -0.0184689268, 0.0091644158, -0.0057804855, -0.0278940305, -0.0002677403, 0.0002727698, -0.0098676230, 0.0217930955, -0.0398815062, -0.0066523325, 0.0111431231, 0.0009956812, 0.0000000000, 0.0000000000, 0.0009653951, -0.0033898843, -0.0072131915, -0.0062043755, -0.0070699675, 0.0253441116, 0.0147491008, -0.0181997847, 0.0314432059, 0.0092494715, 0.0011490249, 0.0285161365, -0.0008548646, 0.0412157019, -0.0151734245, 0.0198772978, -0.0292165473, 0.0002218974, -0.0262812158, -0.0160723482, -0.0215452454, -0.0442469838, -0.0292376281, -0.0861822327, 0.0361313407, -0.0048880965, -0.0039879914, 0.0000000000, 0.0000000000, -0.0000693880, 0.0044759726, 0.0087939107, -0.0035239450, -0.0155589347, -0.0012139955, 0.0206136289, -0.0206511931, 0.0073197895, 0.0225051766, 0.0128549866, 0.0426661923, 0.0030437401, 0.0188819873, 0.0483820871, 0.0157888642, 0.0264863851, -0.0095673053, 0.0036413351, 0.0087163746, 0.0101189230, 0.0270311176, -0.0464847316, 0.0100875848, 0.0037859154, 0.0000298847, 0.0000000000, 0.0040367462, -0.0136706416, -0.0098874367, -0.0088571353, -0.0022585857, -0.0143850730, 0.0085908011, -0.0109763508, 0.0102516507, 0.0253943851, -0.0095674904, -0.0056257933, 0.0175550651, -0.0126342794, 0.0278815452, -0.0034759727, 0.0183949666, -0.0137625485, -0.0034922015, -0.0380157771, -0.0103005431, -0.0141438360, -0.0269718320, -0.0293251182, -0.0251250325, 0.0088674048, -0.0063775236, 0.0039192361, -0.0283297849, 0.0267022002, 0.0294384008, 0.0056470285, 0.0069905224, 0.0350676542, -0.0323449782, 0.0310208088, -0.0276546951, -0.0297767347, 0.0360389728, -0.0193268771, 0.0332725956, 0.0217123346, -0.0311481097, 0.0202261524, -0.0586264873, -0.0076220548, -0.0271117302, -0.0253778085, 0.0178635520, 0.0293997416, -0.0811217340, -0.0465397784, 0.0632705805, -0.0172794204, 0.0141782969, -0.0046344911, 0.0167934103, -0.0116133506, -0.0527649050, 0.0027540675, -0.0258299899, -0.0036761629, 0.0273778269, 0.0104852873, -0.0038382494, 0.0369130489, -0.0043974917, -0.0104388435, -0.0110434767, 0.0291601261, -0.0049925994, -0.0221574209, 0.0249933122, -0.0210286219, 0.0210321183, 0.0314124004, -0.0060520450, -0.0283127795, 0.0598939705, -0.0915134800, -0.0765157656, -0.0024932248, 0.0159493872, 0.0044100314, -0.0207511314, 0.0051782946, 0.0096989086, -0.0004947289, 0.0655430007, -0.0938390758, 0.0157457521, -0.0454708434, 0.0199212455, 0.0089260803, 0.0281977761, -0.0202498658, 0.0002819903, -0.0184953397, 0.0229068422, 0.0443528519, -0.0255225384, 0.0206943354, -0.0022639750, -0.0201270209, -0.0350776355, 0.0296362774, 0.0134313268, -0.0829207528, -0.0173352405, -0.0105550426, 0.0036644565, 0.0034941938, -0.0059068448, -0.0387378027, 0.0477220219, -0.0428887337, 0.0035105419, 0.0824942814, -0.0491721822, 0.0204582955, 0.0090864525, -0.0243567526, 0.0234361142, 0.0133219973, -0.0111267698, 0.0360126395, -0.0426224637, -0.0226546677, 0.0579617040, 0.0377250773, -0.0294584069, 0.0188013966, 0.0169350003, -0.0186412727, -0.0230777488, -0.0118718156, -0.0473739374, 0.0484202961, -0.0098346659, 0.0034308563, -0.0315629578, -0.0158206695, -0.0452802959, 0.0092147766, 0.0232140999, 0.0167866772, 0.0229766681, -0.0820657338, -0.1109493292, -0.0920124383, -0.0869860706, -0.1112483478, -0.1014049193, -0.0758890422, -0.0175390656, -0.0068464613, -0.0518544538, -0.0126089375, 0.0303524800, -0.0467452489, -0.0101099124, -0.0028256774, 0.0459087820, -0.0405534388, 0.0181967152, -0.0552883803, 0.0019896361, 0.0011666951, 0.0135761055, 0.0366725239, -0.0220299045, 0.0235822427, 0.0102853017, -0.1640816345, -0.1419472240, -0.0261995218, -0.0424383667, -0.0436342940, -0.1098366518, -0.0589524945, -0.0396923388, -0.1272449154, -0.0865701506, 0.0062638413, -0.0412123077, -0.0301712935, 0.0605416805, 0.0207592920, 0.0281071439, -0.0061620009, -0.1392190872, -0.0009527851, 0.0177424242, 0.0207486565, -0.0217563044, 0.0011842920, 0.0017984972, 0.0053012264, -0.0028613321, -0.0828481900, -0.0382275134, -0.0191348854, -0.0952916145, -0.0754688288, -0.0413914496, -0.0377437229, 0.0010828870, -0.0226848287, -0.0070779949, -0.0085176829, -0.0250958319, -0.0603325002, 0.0040036075, -0.0118762803, -0.0585904884, -0.0316871156, -0.0328963466, -0.0294697105, -0.0152955411, 0.0479167644, 0.0036462278, 0.0172106775, 0.0098378351, 0.0021126257, -0.0168202004, 0.0095702787, -0.0231688515, -0.0055709858, -0.1390293453, -0.0854743786, 0.0555919178, -0.0267605787, -0.0212542980, -0.0198818341, -0.0012688238, 0.0222028909, -0.0331259782, 0.0240657161, -0.0211861422, 0.0214773191, -0.0338302103, 0.0157323670, -0.0169417877, 0.0195388520, -0.0208858297, -0.0216894800, 0.0154355805, -0.0500718509, 0.0057717933, 0.0237958321, 0.0112918886, 0.0035185636, 0.0024918390, -0.0037974969, 0.0208238872, 0.0207216818, 0.1377886101, 0.0322671834, -0.0695135040, 0.0049121145, 0.0058863311, 0.0103123918, 0.0173199571, -0.0120207359, 0.0352821266, -0.0125867371, -0.0112795862, 0.0136848131, -0.0327290661, -0.0467988676, 0.0270456415, -0.0571315878, -0.0215420529, -0.0259380301, -0.0674930369, 0.0543773821, -0.0013455469, 0.0090113838, 0.0090899779, 0.0077612395, -0.0012252288, -0.0298464701, 0.0071842736, -0.0052972881, -0.0542376648, 0.0616091452, 0.0408376180, -0.0192597021, 0.0151076382, 0.0207187210, 0.0108419808, 0.0406400999, 0.0339769170, -0.0163964017, 0.0084406974, 0.0297165412, 0.0603810653, -0.0328145859, 0.0055449570, -0.0207444039, 0.0640533143, -0.0056402597, 0.0480454784, -0.0163133691, 0.0189412826, 0.0268709612, 0.0018750498, 0.0000000000, -0.0038225488, 0.0265466559, 0.0048200117, 0.0122287062, 0.0328788216, 0.0468663101, -0.0319162124, 0.0301299681, 0.0090447995, 0.0144004594, 0.0171862344, 0.0288140832, 0.0405551960, -0.0011155571, 0.0575695886, 0.0005643173, -0.0318608774, 0.0379355443, -0.0234983601, -0.0018668065, -0.0378541589, 0.0008887685, 0.0012691309, -0.0138703258, 0.0346439193, 0.0026901577, 0.0116383618, 0.0059450411, 0.0028969152, -0.0195933840, 0.0011684204, -0.0015678945, 0.0554452025, 0.0142736688, 0.0604007167, 0.0221066164, -0.0017259253, 0.0329787185, -0.0264910162, 0.0509063776, 0.0322794023, 0.0328597526, 0.0107380407, 0.0361806214, 0.0217951889, -0.0170239641, 0.0225877805, 0.0042351225, 0.0299347337, 0.0175180832, 0.0225349898, 0.0480027530, 0.0083972649, -0.0033800774, 0.0027150458, 0.0002935551, -0.0026246933, -0.0176570254, -0.0252485446, 0.0126066230, -0.0375247571, 0.0054565139, 0.0283516066, -0.0081263999, 0.0489765440, 0.0299862676, 0.0247337302, 0.0040402633, 0.0483753157, 0.0352706115, 0.0189937694, -0.0007647010, 0.0353384276, 0.0103698183, -0.0213281119, 0.0037092539, 0.0021798432, 0.0188582425, 0.0144441330, -0.0185342740, 0.0335306283, 0.0216015359, 0.0014045991, 0.0000000000, 0.0003524047, 0.0203943516, 0.0117492697, 0.0265607715, 0.0330583914, 0.0328592860, 0.0545753482, 0.0521727304, 0.0186781351, -0.0015835139, 0.0652670475, -0.0180597124, -0.0097123878, -0.0092728299, 0.0095364277, 0.0273320070, -0.0556532068, 0.0253827976, 0.0262751399, 0.0137991065, 0.0271199980, -0.0107447750, 0.0065232357, 0.0490671675, 0.0017347300, -0.0176786174, -0.0014020373, 0.0003298299, -0.0016584938, -0.0087072213, 0.0023979788, -0.0412626500, -0.0036916669, -0.0182659824, 0.0012317351, -0.0499784630, 0.0543310514, 0.0160542614, -0.0108180791, -0.0006016464, -0.0101256450, -0.0080163587, -0.0364931865, 0.0174877723, 0.0434463657, -0.0218978727, 0.0556894678, -0.0097326905, 0.0265634207, 0.0096354914, 0.0375052250, -0.0069264618, 0.0182097468, 0.0145563694, 0.0012156640, 0.0003298299, -0.0003618400, -0.0018057365, -0.0072060453, 0.0264348090, 0.0088582127, 0.0178170024, 0.0265204455, 0.0554981385, 0.0201567957, -0.0047356237, 0.0274951025, 0.0009965453, 0.0131576589, -0.0210099122, -0.0292152599, -0.0035042490, -0.0143676580, 0.0428107298, -0.0174785025, 0.0349445029, -0.0049413174, 0.0167441728, -0.0016431491, 0.0193890220, -0.0088911443, -0.0215157078, 0.0012156640, 0.0000000000, 0.0000000000, -0.0085536305, 0.0085686828, 0.0056428468, -0.0169285362, 0.0179079851, -0.0196728832, -0.0280498364, -0.0234998688, -0.0223621742, -0.0262461447, -0.0050061396, -0.0498513565, 0.0084001103, -0.0558831529, 0.0187783392, -0.0196530189, 0.0124913260, 0.0267196491, -0.0054367543, 0.0257352615, 0.0050066416, 0.0167091183, -0.0073018229, 0.0009918481, -0.0012115473, 0.0000000000, 0.0000000000, 0.0000000000, -0.0013339663, -0.0537083123, -0.0029848713, -0.0105557036, -0.0160361635, -0.0306288142, 0.0059931581, -0.0101108186, -0.0198409476, -0.0077458420, 0.0034206612, -0.0354326927, 0.0457706856, -0.0419813979, -0.0281919899, 0.0089803204, 0.0056890083, 0.0062021262, -0.0095440524, 0.0151628904, 0.0077733540, -0.0210160602, 0.0240080289, 0.0281399965, -0.0238577274, 0.0000000000, 0.0000000000, 0.0000000000, 0.0039867379, 0.0079322936, 0.0120186821, -0.1475301475, 0.0413660884, -0.0638391593, -0.0304041614, -0.1034749504, -0.0674780600, -0.0681541265, -0.0598686442, -0.0592501650, -0.0391548433, 0.0352618810, -0.0624789904, 0.0257697146, -0.0198480794, -0.0341104645, 0.0193682898, -0.0188575808, -0.0266120534, -0.0244689577, -0.0338552261, -0.0160966251, 0.0200516537, 0.0000000000, 0.0000000000, 0.0000000000, 0.0000000000, 0.0044122549, 0.0099207724, -0.0061154002, 0.0061006162, -0.0416062135, -0.0289660433, 0.0000978308, -0.0002271362, -0.0516533766, -0.0080395648, -0.0519506481, -0.0637910921, -0.0534319633, -0.0831394758, -0.1018983585, -0.0424647087, 0.0247143710, -0.0253288227, -0.0291021023, 0.0017886053, -0.0003992221, 0.0179379386, 0.0016314485, 0.0000000000, 0.0000000000, 0.0000000000, 0.0000000000, 0.0000000000, 0.0000000000, 0.0038980150, 0.0075927817, 0.0035922858, 0.0030472183, 0.0103456281, 0.0008875189, -0.0208826904, -0.0274285049, 0.0054621475, 0.0119346489, 0.0237297761, 0.0077311418, 0.0326853571, 0.0201585272, 0.0251685339, -0.0003468329, 0.0167043749, -0.0079799089, 0.0056554235, 0.0030440338, 0.0000000000, 0.0000000000, 0.0000000000, 0.0000000000},
   {0.0000000000, 0.0000000000, 0.0000000000, 0.0000000000, 0.0000000000, 0.0000000000, 0.0000000000, 0.0000000000, 0.0000000000, 0.0000000000, 0.0000000000, 0.0000000000, 0.0000840664, 0.0013966653, 0.0022887115, 0.0022887115, 0.0000000000, 0.0000000000, 0.0000000000, 0.0000000000, 0.0000000000, 0.0000000000, 0.0000000000, 0.0000000000, 0.0000000000, 0.0000000000, 0.0000000000, 0.0000000000, 0.0000000000, 0.0000000000, 0.0000000000, 0.0000000000, 0.0009327969, 0.0077396528, 0.0102594340, 0.0000618670, 0.0182020269, 0.0176847752, 0.0102506126, 0.0175891763, 0.0016362403, 0.0197510084, -0.0123103611, -0.0058538481, 0.0083626124, -0.0076002831, 0.0256032759, 0.0111192100, -0.0040470152, 0.0173004150, -0.0032842843, 0.0062223750, 0.0000000000, 0.0000000000, 0.0000000000, 0.0000000000, 0.0000000000, 0.0000000000, 0.0050534979, 0.0064130015, 0.0129274356, -0.0004476854, -0.0008711950, 0.0162669971, -0.0013908445, -0.0402311336, -0.0384326472, 0.0250467270, 0.0052757336, -0.0294963464, 0.0801204005, -0.0855616476, 0.0396865403, 0.0043072225, -0.0427228760, -0.0121884661, -0.0055783355, -0.0039614924, -0.0289461353, 0.0127659357, 0.0542202213, -0.0384648564, 0.0000000000, 0.0000000000, 0.0000000000, 0.0000000000, -0.0136954648, 0.0070199464, -0.0111415995, 0.0389774164, -0.0584771348, 0.0134512004, 0.0280522607, -0.0386921029, 0.0056362974, -0.0021920006, 0.0541747559, -0.0741174860, 0.0677776910, 0.0005665170, 0.0276697268, -0.0069828827, 0.0470063284, -0.0227179360, 0.0728915836, -0.0084284444, -0.0706987380, -0.1522538041, 0.0489935728, 0.0589803138, -0.0138050923, 0.0000000000, 0.0000000000, 0.0025607150, 0.0052531755, 0.0033541342, -0.0082021292, 0.0125841646, 0.0102621791, -0.0109229170, 0.0078360896, 0.0060454283, 0.0292097373, 0.0011609140, 0.0074635455, 0.0153454904, 0.0026625896, 0.0054360362, 0.0265467120, -0.0239261435, 0.0390185570, -0.0289635699, 0.0234934601, -0.0482182714, 0.0700142080, -0.1384382405, 0.0253150523, -0.0275059183, 0.0018250405, -0.0018284321, 0.0000000000, 0.0000000000, -0.0074479919, 0.0052588846, 0.0072374030, 0.0044045761, 0.0153268224, 0.0223081276, 0.0011144231, 0.0105523486, -0.0013577757, 0.0183533722, 0.0278479614, 0.0035165093, 0.0078406996, 0.0025936724, 0.0368150500, -0.0464536942, -0.0133255385, 0.0168373319, -0.0192719069, -0.0341143250, -0.0530025229, 0.0305647022, -0.0405807128, -0.0118529114, 0.0098863136, 0.0126509881, 0.0000000000, 0.0115555073, -0.0012051854, 0.0104235772, 0.0020715722, -0.0159115546, 0.0240869262, -0.0239155234, 0.0107750509, 0.0163544503, 0.0359459229, 0.0219216271, -0.0125179503, 0.0486075768, -0.0190283991, 0.0262248016, 0.0189472101, -0.0081638614, 0.0589974375, -0.0710304852, 0.0140179824, 0.0331488505, 0.0121014873, -0.0336721079, 0.0048082203, -0.0967996575, -0.0331578349, 0.0079850350, 0.0018538811, 0.0124684008, -0.0100072698, 0.0091063307, -0.0017818036, 0.0213534944, 0.0074578965, 0.0019584920, 0.0063725241, 0.0043389027, -0.0153870746, -0.0111918722, 0.0171152709, -0.0216531547, 0.0508835880, 0.0272932594, -0.0189859938, 0.0371565174, -0.0591368016, 0.0148610471, 0.0127282741, -0.0811348225, -0.0590189185, 0.0201755972, -0.0325498976, -0.0251288054, 0.0107972931, 0.0101673152, 0.0036630304, -0.0336968042, -0.0114829959, -0.0070620324, 0.0177323967, -0.0070851302, -0.0083024305, -0.0067430516, -0.0060946531, -0.0476747443, 0.0035093418, -0.0141444074, 0.0248564064, 0.0074501791, -0.0056164392, 0.0037946181, 0.0169263473, -0.0041658808, 0.0657783140, 0.0037615274, 0.0034196826, -0.0049696632, 0.0304745276, -0.0832032296, -0.0613114446, -0.0877428251, 0.0449615682, 0.0085034858, -0.0033973330, 0.0352624800, -0.0011108503, 0.0043527205, 0.0225594206, -0.0066184600, 0.0204477170, 0.0006674830, -0.0166981240, 0.0152653781, 0.0019893415, -0.0651901628, -0.0342597262, -0.0406622421, 0.0063943445, 0.0534227263, 0.0249903333, 0.0270000985, -0.0001663514, 0.0337196192, 0.0521465148, 0.0367818111, 0.0672750004, -0.0395961926, -0.2989118248, 0.0914943287, -0.0175087677, 0.0102556924, -0.0011174939, -0.0229219865, -0.0402378407, -0.0031033570, -0.0225230740, 0.0217084067, -0.0093583255, 0.0332731265, -0.0177203747, -0.0759782202, -0.1039319814, -0.0532550221, -0.0793376010, 0.0501088067, 0.0374317115, 0.0162664083, 0.0460989785, 0.0298074378, 0.0204791861, -0.0028417711, 0.0505627378, 0.0298100434, 0.0180883172, 0.1482046829, -0.1909647583, 0.0645991396, -0.0251158347, 0.0026129904, 0.0000312425, 0.0054547342, -0.0031219081, 0.0455638923, 0.0235677207, -0.0174090285, -0.0022518606, -0.0819565334, -0.0620724501, -0.0532353216, -0.0593822744, -0.0255872536, 0.0064094407, 0.0020802121, 0.0312367370, 0.0509291531, -0.0086316774, 0.0444158936, 0.0237626520, 0.0096876759, -0.0069105992, -0.0489287827, -0.0101273309, 0.0431519772, -0.3086765992, 0.0015295369, -0.0155025861, 0.0002076239, -0.0024244875, 0.0100490605, -0.0248718153, -0.0193630425, -0.0173014902, -0.0104076006, -0.0697191267, -0.0519647808, -0.0481130021, -0.0134937458, 0.0262422498, -0.0396747951, 0.0567548848, -0.0153633366, 0.0731222546, 0.0349711989, 0.0438227040, 0.0018519261, 0.0111749812, 0.0084917812, 0.0362266583, -0.0630310575, -0.0770341933, -0.2585979640, -0.2167876617, 0.1173490881, 0.0196950023, 0.0026483457, 0.0003671685, -0.0038861177, -0.0107903783, -0.0035253036, -0.0253385562, 0.0078524236, 0.0454192860, -0.0101781696, 0.0027792598, -0.0258847899, -0.0473763985, 0.0150796734, 0.0434058394, 0.0105443567, 0.0558827253, -0.0512813050, 0.0460104702, 0.0081108103, -0.0035576687, -0.0221049452, -0.0801578051, -0.0594620387, -0.1688467444, 0.0949423323, 0.1353717154, -0.2095204441, 0.0457882837, -0.0206717588, -0.0005741082, 0.0142983847, -0.0188789426, 0.0411775328, -0.0045576622, -0.0204454477, -0.0677210803, -0.0239109391, -0.0132823706, -0.0024511043, -0.0280313620, -0.0315929278, 0.0683744379, -0.0216686412, 0.0116871419, 0.0027591505, 0.0217597752, 0.0025851158, 0.0204750414, -0.0522695576, -0.0488623511, 0.0465356677, 0.0126430829, -0.0272906818, -0.0369526140, -0.0242376751, 0.0038668191, 0.0068290799, 0.0000723158, 0.0060892567, -0.0112432418, -0.0244214084, -0.0170444176, -0.0078621331, 0.0006714713, -0.0326900004, -0.0387173522, -0.0266115215, -0.0295363952, 0.0020450427, 0.0251195059, -0.0022506893, 0.0009985715, 0.0336760141, 0.0050913507, -0.0001447321, -0.0623348314, 0.0135095587, 0.0927828111, -0.0012275512, 0.0454655333, 0.0825051898, 0.0006453344, -0.1500204423, 0.0603399829, 0.0049731048, 0.0034235919, 0.0038742487, 0.0277520812, 0.0134853322, 0.0355665720, 0.0195029095, -0.0283987958, -0.0162385626, -0.1039434136, 0.0225535493, -0.0215338322, 0.0127039989, -0.0189600982, 0.0262056353, -0.0130608220, -0.0244300396, -0.0657218075, -0.0478863708, 0.0693512245, 0.0349595933, 0.0172720310, 0.0294431176, -0.0122522433, -0.0121322902, 0.0399155189, -0.1935630006, -0.0219615797, 0.0114586113, 0.0000000000, 0.0021527529, -0.0164402216, -0.0018612992, 0.0221733711, -0.0269491812, -0.0327269687, 0.0537791279, 0.0002714553, -0.1260054347, -0.0929870992, -0.0866310132, -0.0215284444, -0.0490184524, -0.0569574130, -0.0677386423, -0.0153472089, 0.0866407176, -0.0218177402, 0.0702089235, -0.0171140911, -0.0019876911, 0.0343501798, 0.0416041783, -0.0237538999, -0.1839925848, -0.0055520499, 0.0029159950, -0.0009576736, 0.0016326459, 0.0158632769, 0.0336749493, -0.0396607926, 0.0381341413, 0.0192646455, -0.0451272879, 0.0142872426, -0.0545599295, -0.0807145188, -0.0698962590, -0.0859869852, -0.0840347096, -0.0892454820, 0.0457749763, 0.0771237693, 0.0041662685, 0.0185561788, 0.0053815443, 0.0193833233, 0.0362772995, 0.0654809995, 0.0045463456, -0.0473815154, -0.1105643735, 0.0295811701, -0.0033780509, 0.0026058881, -0.0067451263, -0.0072751433, 0.0205830512, 0.0106554149, 0.0403094182, -0.0304318172, -0.0109927650, -0.0056187411, -0.0248866801, -0.0057826678, -0.0617014170, 0.0031824301, -0.0509102743, -0.0236075248, -0.0478015873, -0.0029655136, 0.0529174725, 0.0158022011, 0.0397187544, -0.0165554279, 0.0128685086, -0.0327872943, -0.0281091257, 0.0043931208, -0.0805718466, 0.0301222219, -0.0030842580, 0.0000000000, 0.0081749922, -0.0143815750, 0.0438274267, -0.0028775147, 0.0294967010, 0.0131974535, 0.0279114461, -0.0123835297, 0.0482517733, -0.0238929496, 0.0100842036, -0.0498986252, -0.0086144382, 0.0233895228, -0.0236361469, -0.0149867170, -0.0065751318, 0.0393829546, -0.0444456886, 0.0273735393, -0.0038522585, -0.0077524545, 0.0176438514, -0.0143525613, -0.0929917546, 0.0134712535, 0.0012709232, -0.0003166697, -0.0018627004, 0.0141551713, -0.0047303579, 0.0243364191, -0.0118876721, 0.0172527421, -0.0095559108, 0.0435350932, -0.0609247058, 0.0144014559, -0.0397940708, -0.0083667777, -0.0114165560, -0.0187619743, -0.0004807194, 0.0549840262, -0.0390928563, 0.0346807025, 0.0375505952, -0.0072660239, -0.0165990767, -0.0114021714, -0.0224876188, -0.0715656876, 0.0572011065, -0.0057279495, 0.0031075807, -0.0003166697, 0.0044220263, -0.0127767953, 0.0122960056, -0.0023665099, -0.0168753823, 0.0080117999, 0.0063972739, -0.0383842096, 0.0266904630, -0.0104509150, 0.0349730632, 0.0038217134, 0.0001533245, -0.0280133538, 0.0010970275, -0.0019861166, 0.0367327108, -0.0210176003, -0.0020554843, 0.0249503274, -0.0194671692, 0.0079724811, 0.0165533407, -0.1001393176, -0.0314015800, -0.0183323360, 0.0031075807, 0.0000000000, 0.0000000000, 0.0236890515, -0.0018478892, 0.0171793767, 0.0331219904, 0.0195642269, 0.0339516743, 0.0038526247, 0.0330660521, 0.0068889491, 0.0235757020, -0.0209116190, 0.0497875184, -0.0280649122, 0.0022337586, -0.0413724215, -0.0143394124, 0.0545265489, -0.0011597535, -0.0016693114, 0.0104122551, -0.0364095256, -0.0182619860, 0.0337431498, -0.0263862837, 0.0064595280, 0.0000000000, 0.0000000000, 0.0000000000, -0.0237159597, 0.0324612425, 0.0163255478, -0.0269279609, 0.0382167748, 0.0168171807, 0.0128884605, -0.0067733076, 0.0325179253, 0.0267009213, -0.0221547829, 0.0177448210, 0.0119542200, -0.0058595852, 0.0130749622, 0.0180242361, -0.0533779827, -0.0108515342, -0.0113950162, 0.0285096464, -0.0017911184, 0.0518026225, -0.0661058202, 0.0045550404, -0.0113471596, 0.0000000000, 0.0000000000, 0.0000000000, 0.0181579355, -0.0212092630, -0.0168092176, 0.0292434453, 0.0001809950, -0.0126958502, 0.0426559396, 0.0133665866, 0.0301941382, -0.0138596812, 0.0608994117, -0.0016610891, 0.0265922130, -0.0043309356, 0.0089806245, -0.0056420402, -0.0131026818, 0.0303789996, -0.0224123759, -0.0304697032, 0.0218176007, -0.2555827545, 0.0394343118, 0.0176047788, 0.0187199932, 0.0000000000, 0.0000000000, 0.0000000000, 0.0000000000, 0.0025882144, -0.0942504022, 0.0057484771, -0.0154539292, 0.0030118006, 0.0040241775, -0.0496846051, 0.0069230044, -0.0215326641, -0.0369096772, -0.0346267076, -0.0205985171, -0.0446215006, -0.0182562363, 0.0010050624, -0.0123579779, -0.0162651032, 0.0226948828, -0.0079944488, -0.0007562395, -0.0035757755, 0.0068379791, 0.0052527287, 0.0000000000, 0.0000000000, 0.0000000000, 0.0000000000, 0.0000000000, 0.0000000000, 0.0030344804, 0.0105209386, 0.0046573386, 0.0010982798, 0.0066546567, 0.0037241187, -0.0114630917, 0.0011823602, -0.0058693397, -0.0020277841, -0.0079967899, -0.0042591588, -0.0535342883, -0.0240298016, 0.0068330288, 0.0027648878, -0.0043547017, 0.0024785459, 0.0047851984, 0.0038732247, 0.0000000000, 0.0000000000, 0.0000000000, 0.0000000000},
   {0.0000000000, 0.0000000000, 0.0000000000, 0.0000000000, 0.0000000000, 0.0000000000, 0.0000000000, 0.0000000000, 0.0000000000, 0.0000000000, 0.0000000000, 0.0000000000, 0.0071776323, 0.0066620871, 0.0020164917, 0.0020164917, 0.0000000000, 0.0000000000, 0.0000000000, 0.0000000000, 0.0000000000, 0.0000000000, 0.0000000000, 0.0000000000, 0.0000000000, 0.0000000000, 0.0000000000, 0.0000000000, 0.0000000000, 0.0000000000, 0.0000000000, 0.0000000000, 0.0088780883, 0.0088058803, -0.0222821915, 0.0218401900, -0.0055524742, 0.0263926050, 0.0062267482, 0.0117983417, -0.0116305336, -0.0970595716, 0.0484253736, -0.0724586089, -0.0120923421, -0.0011852804, -0.0075103887, 0.0072806558, -0.0450718885, -0.0003303879, -0.0128338322, 0.0035474333, 0.0000000000, 0.0000000000, 0.0000000000, 0.0000000000, 0.0000000000, 0.0000000000, -0.0000921368, -0.0078075364, -0.0073623363, -0.0110910928, 0.0211377662, -0.0629638269, -0.0202911074, -0.0399407078, -0.1189125686, -0.0922947036, -0.0421796697, -0.0052452741, -0.0011995689, -0.0251964353, -0.0682263376, -0.0391209190, -0.0910941901, -0.0113788741, -0.0244714986, -0.0183452187, -0.0003523901, -0.0444465607, 0.0105036082, 0.0014702045, 0.0000000000, 0.0000000000, 0.0000000000, 0.0000000000, 0.0031244094, 0.0037413711, -0.0069206267, 0.0322957250, -0.0557474481, 0.0455458749, -0.0806885123, -0.0884170544, -0.0157443762, -0.0852601309, -0.0482553516, -0.2833214533, -0.0458564690, -0.1032533091, -0.0300644064, -0.0204374465, -0.1183820371, 0.0291521508, -0.0382883858, -0.0060607970, -0.0162229838, 0.0134893101, -0.0462510869, -0.0071998917, -0.0010859483, 0.0000000000, 0.0000000000, 0.0051669098, 0.0143888128, -0.0401618196, -0.0031081990, 0.0206477315, -0.0748959325, 0.0710209494, -0.0555905791, 0.0386942423, -0.1019151625, -0.0210948845, -0.0472790694, 0.0756861947, -0.1046545899, -0.0785788555, -0.0267248447, -0.0297118010, -0.0617339249, -0.0074208820, 0.0264919218, 0.0018537806, 0.0371676722, -0.0002177710, 0.0248674829, 0.0052430014, -0.0057147257, 0.0038045146, 0.0000000000, 0.0000000000, -0.0193495405, 0.0259568221, -0.0139658598, 0.0063291721, 0.0104909993, -0.0113567855, -0.0120330605, -0.0044514278, -0.0125329085, -0.0198439533, 0.0043413586, -0.0745241703, 0.0491974601, 0.0029626132, 0.0614275511, -0.0017956669, 0.0328749917, 0.0352334677, 0.0078543409, -0.0016248210, 0.0043880818, 0.0018328735, -0.0189925264, -0.0043903911, -0.0199278729, 0.0035917627, 0.0000000000, 0.0082076117, 0.0014037821, -0.0360584348, 0.0300106110, 0.0002637485, -0.0298905361, 0.0084991753, -0.0101756063, -0.0289414525, -0.0266804112, -0.0933863726, -0.0721055439, -0.0890891462, -0.1094670345, -0.1255009501, -0.0977950354, -0.0795754503, -0.1021995384, -0.0407990160, -0.0397055040, -0.0023315503, -0.0094877997, 0.0513268470, -0.0125108157, -0.0116045884, 0.0102805244, -0.0168167935, 0.0079310496, 0.0042628816, -0.0786074820, -0.0152418138, -0.0393234292, 0.0645728322, -0.0157581446, 0.0453121383, -0.0211078527, 0.0297730674, -0.0302849131, 0.0389407999, -0.0787230883, -0.0394482635, -0.0833374083, -0.0877936993, -0.0816522512, -0.0141400118, -0.0385162791, -0.0017951112, 0.0001039993, 0.0137040815, 0.0197303078, 0.0446978135, -0.0230669362, -0.0246248197, 0.0005913469, -0.0412566855, -0.0037278960, -0.0663407436, -0.0034907823, 0.0603287761, 0.0164318562, 0.0171832239, -0.0400141924, 0.0317798175, -0.0921428150, 0.0275749482, -0.0414009527, -0.0383949437, -0.0303716497, -0.0370932524, -0.0889674801, -0.0421038641, -0.0961076972, -0.0289138126, -0.0064957793, -0.0310724850, -0.0303248479, -0.0019033304, -0.0647640266, -0.0275654286, 0.0093411248, 0.0082964411, -0.0099451581, -0.0096601852, -0.0017340976, -0.0161310250, 0.0444189411, -0.0430348529, -0.0706712485, 0.0455714192, 0.0035044242, -0.0037925245, -0.0125257643, -0.0355213454, -0.0612933731, 0.0127160367, -0.0814536858, -0.0041644704, -0.1118638443, -0.0720462917, 0.0239663779, -0.0438099082, 0.0142959104, 0.0018492692, -0.0148042770, 0.0191147290, 0.0001214599, 0.0400178306, -0.0784712152, -0.0278732835, 0.0027508935, -0.0111625699, 0.0008259337, 0.0083676550, -0.0075973371, -0.0591652861, 0.0616701812, -0.0787555230, -0.0783377546, 0.0380294952, 0.0272623419, 0.0361782725, -0.0312850415, -0.0154438889, 0.0250232317, -0.0323236889, -0.0985041562, -0.0007215881, -0.0834917287, 0.0351215104, -0.0384627329, -0.0317008662, -0.0192271435, 0.0048426081, 0.0345775584, -0.0679872504, 0.0548734023, -0.0133914912, -0.0474305517, 0.0089217356, 0.0161546091, -0.0842844523, -0.0216569135, 0.0501501856, -0.0485827171, 0.0220547527, 0.0338403643, -0.0499692923, -0.0509348043, 0.0423136463, 0.0482611858, -0.0243902654, 0.0504599711, -0.1409493988, -0.1499828880, 0.0526545961, 0.0504163132, 0.0055378755, -0.0024875504, 0.0632043272, -0.0542940863, -0.0456579519, -0.0586956203, -0.0282138255, -0.1083351427, -0.0124798305, -0.0261170599, 0.0167904523, 0.0152658372, -0.0069923358, -0.0016386549, -0.0133369801, -0.0308303044, 0.0019461469, -0.0287331788, 0.0464579641, 0.0431235279, -0.0161380950, 0.0842208977, 0.0383085682, 0.1737648343, -0.0065302564, -0.0764796551, 0.0337063855, 0.0621262107, -0.0232566066, -0.0144593892, -0.0002349859, -0.0006266686, 0.0329668633, 0.0157274714, -0.0594293607, 0.0661471504, -0.0089154771, -0.0272128295, -0.0002989736, 0.0054494316, 0.0137903538, -0.0074609618, -0.0226777870, -0.0227328593, -0.0225139778, 0.0206861070, 0.0069535848, 0.0499550285, 0.0864596802, 0.0687580933, 0.1014664893, 0.0559681379, -0.0637394222, -0.0411949046, 0.0437330331, 0.0089298906, 0.0528008086, 0.0426550484, -0.0639379747, 0.0299772083, 0.0561312073, -0.0453184361, -0.0055155901, -0.0854615569, 0.0045373031, 0.0268983338, -0.0154760214, 0.0017579424, 0.0338951886, -0.1133128119, 0.0005150609, 0.0501343740, 0.0366719654, 0.0307899276, 0.0935524257, 0.0151929255, 0.0299254473, 0.0275231998, 0.0641705931, 0.0563480952, -0.0613713995, 0.0053132887, -0.0012398872, 0.0682036740, 0.0582728141, 0.0015382540, 0.0923807533, 0.0028093361, 0.0091221329, 0.0459246042, -0.0601808140, 0.0215795388, 0.0176602635, -0.0674810180, 0.0009714503, 0.0020082738, 0.0129615372, 0.0670798975, -0.0152893709, 0.0415561572, -0.0261522181, 0.0118747921, 0.0056657957, 0.0419373015, 0.0497093971, 0.0408120212, 0.0449153013, 0.0445025152, -0.0446902765, 0.0160495593, 0.0441878802, 0.0628622890, 0.0429016967, -0.0299625852, 0.0625751571, -0.0108748433, -0.0698668075, 0.0659742017, 0.0850593689, -0.1477077637, -0.0115996800, 0.0481714428, -0.0127582834, 0.0015114491, -0.0115396464, -0.1196191241, -0.0103049039, -0.0567179014, -0.0107060646, 0.0023567172, 0.0426783598, 0.0698727703, 0.0179205157, 0.0121833083, -0.0308944709, 0.0666211679, -0.0330022495, 0.0529007274, 0.0737541215, 0.0253954643, 0.0537960462, 0.0188892378, -0.0013611762, 0.0903714849, 0.0390239967, -0.0402948844, -0.0331326769, 0.0321983368, -0.0385555077, -0.0228923416, 0.0142383086, 0.0000000000, 0.0092186064, 0.1248996895, -0.0360470121, 0.0297123706, -0.0234758176, -0.0014245104, 0.0370945604, 0.0149506147, 0.0457948061, -0.0219768578, 0.0086149615, -0.0444039239, 0.0292368238, 0.0857613793, 0.0259119722, 0.0522943300, 0.0454772440, 0.0911912576, -0.0474194425, -0.0393525600, 0.0424876024, -0.0455398074, 0.0859254113, -0.1112348679, -0.0120490333, 0.0135302288, -0.0175868637, -0.0066124131, 0.0114281005, -0.1051122952, -0.0265343798, -0.0323372529, -0.0242345078, 0.0325336611, 0.0068704423, 0.0170358181, 0.0647588580, -0.0996113038, -0.0806510651, 0.0993504150, 0.1008861868, 0.0153658082, 0.0167465169, 0.0377094410, -0.0896146484, -0.0602582404, 0.0527979911, 0.0046816804, 0.0190807926, -0.0422402035, -0.0179811067, 0.0720615081, -0.0873398244, -0.0464888310, 0.0284503835, 0.0082453685, -0.0140235597, 0.0247366156, 0.0678550936, 0.0037670141, 0.0868144743, -0.0666355176, -0.0446540816, -0.0324700503, -0.0942108954, -0.0648985180, 0.0698479564, -0.1638281591, 0.0108107103, 0.0773491175, -0.0215183729, -0.0281861171, 0.0170559061, 0.0008084126, -0.0534398221, -0.0656858109, 0.1164136534, -0.1938898421, 0.0112114236, -0.0417719892, -0.0462968429, 0.0254836232, -0.0043937282, 0.0000000000, 0.0100891274, 0.0225647512, -0.0294470749, -0.0027567767, -0.2045053168, 0.0599678140, 0.0018154085, -0.1776404452, 0.0290368186, -0.1254151701, -0.0115673994, -0.0047278486, -0.0797484260, 0.0224980892, 0.0174338950, 0.0690669579, 0.0049979565, 0.0139986922, -0.0293921485, -0.0454763487, -0.0267262373, 0.0221723179, -0.0143754701, -0.0383094045, -0.0358409274, 0.0353993404, -0.0015092023, 0.0037649444, 0.0195797148, -0.0411075571, 0.0265530852, -0.0634292940, 0.2392368464, -0.1561456661, -0.1768186823, 0.1536116875, -0.0512889470, 0.0228969870, -0.0447074222, -0.0339775110, -0.0411357662, -0.0414997425, 0.0289295906, -0.0767856697, 0.0448131852, -0.0251500455, 0.0045338078, 0.1133707631, -0.0780767608, -0.0022568315, 0.0295851877, 0.0053040714, 0.0286194455, -0.0101796996, 0.0055638266, 0.0037649444, -0.0046866037, 0.0911072200, -0.0730635896, 0.0197255748, -0.0951773457, -0.0538825997, -0.0005262810, -0.0613614508, -0.0883591641, -0.0308158711, -0.0168737639, -0.0502688259, -0.0219785302, -0.0676010696, -0.0359745750, -0.0345276444, 0.0146747010, -0.0204992603, 0.0580800222, -0.0983968303, 0.0734717531, 0.0487532003, -0.0205925091, -0.0018292326, -0.0278488370, 0.0184411724, 0.0055638266, 0.0000000000, 0.0000000000, -0.0166204191, -0.0293031723, 0.0039432469, -0.0751855925, 0.0040609297, -0.0077010105, 0.0052479934, -0.0319263892, -0.0046720955, 0.0022862860, -0.0353231851, -0.0053926723, -0.0099014820, 0.0108402182, 0.0324895281, -0.0200104002, 0.0195165930, -0.0260430780, 0.0178795932, 0.0228425629, -0.0669698154, -0.0020830380, -0.0022516982, 0.0067571375, 0.0118052870, 0.0000000000, 0.0000000000, 0.0000000000, 0.0072468929, 0.0327615097, -0.1069141527, 0.0074884837, 0.0704522805, -0.0577529483, 0.0526040994, 0.0508742213, -0.0531198893, 0.0522166694, -0.0304121434, -0.0183519898, 0.0058348211, -0.0366613516, -0.0062852998, -0.0130131181, -0.0207864083, 0.0290831640, -0.0215947072, 0.0021368012, 0.0081541381, -0.0037813118, -0.0053228538, 0.0344681571, -0.0027735896, 0.0000000000, 0.0000000000, 0.0000000000, 0.0056352522, 0.0116590599, 0.0328706886, -0.0263939246, -0.0149294943, -0.0335401284, -0.0289595972, -0.0579667742, -0.0059387762, -0.0539567471, -0.0548795115, -0.0324487052, -0.0509942418, -0.0266502671, -0.0494095336, -0.0406930128, -0.0196229110, -0.0539614795, -0.0011388944, -0.0377677270, 0.0018319423, 0.0072575330, -0.0237009449, -0.0049010065, -0.0044758118, 0.0000000000, 0.0000000000, 0.0000000000, 0.0000000000, 0.0027725788, -0.0126682317, 0.0201659940, 0.0079056191, -0.0974375499, -0.0239022033, -0.0635020386, -0.0514977112, -0.0919443459, -0.0557379637, -0.0918560130, -0.0809855519, -0.0699786408, -0.0594329176, -0.0592795286, -0.0400251748, -0.0281620020, -0.1477492400, -0.0210641605, -0.0174162254, -0.0060540214, 0.0079919439, 0.0073690729, 0.0000000000, 0.0000000000, 0.0000000000, 0.0000000000, 0.0000000000, 0.0000000000, -0.0016138027, 0.0143633813, 0.0022967776, 0.0058809860, -0.0325382100, -0.0078353390, -0.0335085923, 0.0105469962, -0.0313984308, 0.0149889649, -0.1041082512, 0.0020619571, -0.0218493232, 0.0163090634, -0.0155414019, -0.0061749965, 0.0544523541, -0.0024204931, -0.0015689128, 0.0108484935, 0.0000000000, 0.0000000000, 0.0000000000, 0.0000000000},
   {0.0000000000, 0.0000000000, 0.0000000000, 0.0000000000, 0.0000000000, 0.0000000000, 0.0000000000, 0.0000000000, 0.0000000000, 0.0000000000, 0.0000000000, 0.0000000000, 0.0030983526, 0.0037585950, 0.0023868645, 0.0023868645, 0.0000000000, 0.0000000000, 0.0000000000, 0.0000000000, 0.0000000000, 0.0000000000, 0.0000000000, 0.0000000000, 0.0000000000, 0.0000000000, 0.0000000000, 0.0000000000, 0.0000000000, 0.0000000000, 0.0000000000, 0.0000000000, 0.0049987455, 0.0057479545, -0.0106062207, 0.0044426470, 0.0097422323, 0.0362177986, -0.0086265355, 0.0038556399, -0.0093694632, -0.0007734872, 0.0251774244, 0.0042393768, -0.0058792076, 0.0159981689, 0.0053698953, -0.0118742297, 0.0089329860, 0.0061268847, 0.0060794084, -0.0017428254, 0.0000000000, 0.0000000000, 0.0000000000, 0.0000000000, 0.0000000000, 0.0000000000, 0.0021460519, -0.0427596753, -0.0555812012, 0.0134766570, 0.0221303421, 0.0244931072, -0.0430751637, -0.0385515282, 0.0176930372, -0.1157197521, -0.0567700425, -0.1128158594, -0.1074128619, -0.0155571396, -0.0168867771, -0.0150575586, -0.0076206020, -0.0066078901, -0.0296397924, -0.0051724964, -0.0169888641, 0.0217976153, -0.0862826472, 0.0038456363, 0.0000000000, 0.0000000000, 0.0000000000, 0.0000000000, 0.0039580469, 0.0010875769, 0.0378547405, -0.0456450710, -0.0089733426, -0.0503246314, 0.0487755313, -0.0960625298, 0.0810100101, -0.1068014834, 0.0471247143, -0.0416181128, -0.0051266683, -0.0285030331, -0.0359526019, -0.0108058520, -0.0215197364, -0.0112024496, 0.0024610944, -0.0148664596, 0.0079021771, -0.0192061565, -0.0032801302, -0.0002548913, 0.0007208291, 0.0000000000, 0.0000000000, 0.0016668502, -0.0072076152, -0.0102332819, -0.0750790127, -0.0344382744, -0.0006626993, 0.0104395053, -0.0548481183, -0.0050407296, -0.0291574851, 0.0038534729, -0.0075249856, -0.0664674236, -0.0087192617, 0.0056756932, 0.0038718712, -0.0408718595, 0.0259878849, -0.0039115210, -0.0408919325, 0.0293022477, -0.0115921009, 0.0074193632, 0.0202713958, -0.0065419927, 0.0035613149, -0.0053316751, 0.0000000000, 0.0000000000, 0.0020129327, 0.0184497476, -0.0886549409, 0.0071176448, -0.0418262089, 0.0093316928, -0.0091535355, -0.0031758867, -0.0015828909, -0.0105900422, -0.0274194314, -0.0103006591, -0.0272616614, -0.0269996113, -0.0150001251, 0.0198735383, 0.0132591993, -0.0224575151, 0.0557320832, -0.0079838679, 0.0400141234, 0.0021738516, 0.0024897551, 0.0005050002, 0.0053920324, 0.0001144435, 0.0000000000, 0.0003084336, 0.0137064363, -0.0729415369, 0.0353586246, 0.0251448113, -0.0072744762, -0.0113302894, -0.0312870589, 0.0010350247, -0.0116175526, -0.0165428050, -0.0056883041, -0.0260633511, 0.0318627845, -0.0399082070, -0.0243777130, -0.0205950252, -0.0008703290, 0.0297122157, 0.0162954205, -0.0110906498, 0.0112606990, 0.0130446480, 0.0427919687, -0.0079759547, 0.0059939376, -0.0006402787, 0.0037050428, -0.0009206064, -0.0104530628, 0.0077238881, -0.0842622646, -0.0224709949, -0.0030724363, -0.0206837348, 0.0299621753, -0.0225174852, 0.0427211146, 0.0162210228, 0.0090658791, -0.0407075827, 0.0342840309, -0.0705257421, 0.0119887944, 0.0016479575, 0.0150655501, -0.0148437640, -0.0027539947, 0.0247104221, 0.0389955792, 0.0064057391, 0.0184639011, 0.0450322681, -0.0202838383, 0.0079182187, 0.0056144016, 0.0135663739, -0.0226287229, -0.0494059497, -0.0309070423, -0.0014915779, -0.0293516504, -0.0117034297, 0.0200842084, -0.0095597967, 0.0152627959, 0.0213499226, -0.0125361624, -0.0200508133, -0.0317870102, -0.0018658504, -0.0228046409, 0.0036590681, -0.0297723393, 0.0151299420, 0.0260516571, 0.0312096379, -0.0467743305, 0.0587687410, 0.0420830838, 0.0161170703, 0.0099474975, -0.0056042398, -0.0011081118, 0.0058369244, -0.0231621079, -0.1101466590, -0.0522261777, -0.0247705657, 0.0276763105, -0.0183143766, -0.0071449183, 0.0120578749, -0.0094662328, 0.0565557140, 0.0076527915, -0.0120856261, -0.0235261855, -0.0736844164, -0.0656911931, -0.0159146267, -0.0268642269, -0.0051285585, -0.0368935055, 0.0623673386, 0.0606261580, -0.0227177064, 0.0527562570, 0.0277215954, -0.0027835812, 0.0044774354, 0.0000852301, 0.0033988305, 0.0153004971, -0.1112269523, 0.0321710669, -0.0212689131, -0.0464737267, 0.0523606669, 0.0726159629, 0.0587422256, 0.0419718325, 0.0568188238, 0.0594205287, 0.0258571176, -0.0183739953, 0.0135933761, -0.0579432895, -0.0691999482, -0.0829134745, -0.0836551216, -0.0646861771, -0.0224128201, 0.0256600823, 0.0456599721, 0.0809705162, 0.0204073744, 0.0237117090, -0.0113551162, 0.0082644647, -0.0249046951, 0.0700339871, -0.1093195373, -0.0109908984, -0.0075280208, 0.0805866178, -0.0262110590, -0.0064746297, 0.0339604578, 0.0255681048, 0.0291008334, 0.0161091231, 0.0446009349, -0.0174771080, -0.0155683503, -0.0146786995, -0.0295572166, -0.0180511840, -0.0509964508, -0.1600358665, -0.1631830373, -0.1769129654, -0.0367793356, 0.1273022912, 0.0355121459, -0.0211321775, 0.0063714444, 0.0031876342, -0.0109936255, -0.0239172052, 0.0424655761, -0.0006084826, -0.0061833407, 0.0238661436, 0.0169114055, 0.0272643524, -0.0310678017, 0.0317099165, 0.0391233774, 0.0232342551, 0.0496731239, -0.0340093618, 0.0257928983, -0.0416525639, -0.0450382943, -0.0460699073, -0.0638224027, -0.0096901044, -0.0935956749, -0.1359069769, -0.1545296492, -0.3915962705, 0.0844286518, 0.0553960297, -0.0134023543, 0.0021029683, -0.0081282730, -0.0558432590, -0.0166338160, 0.0122836091, 0.0345409631, -0.0207854971, 0.0412405372, 0.0032203674, 0.0342272862, -0.0001074375, 0.0314359413, 0.0521702290, 0.0167905242, -0.0584398783, -0.0169685862, -0.0650677081, -0.0466703923, -0.0112493637, 0.0198236266, 0.0023330758, -0.0214884324, -0.0305910966, -0.1581665446, -0.0566193885, -0.0630160189, 0.0267413046, -0.0000254349, 0.0081544131, -0.0160646562, 0.0108704452, 0.0311787719, -0.0213346434, -0.0063711344, -0.0373426210, -0.0287506915, -0.0260110869, 0.0002137258, 0.0655427619, -0.0108023604, 0.0384972544, -0.0125786885, -0.0241492703, 0.0121663557, -0.0500675213, -0.0320285889, -0.0331173114, -0.0626192263, 0.0022790718, -0.0434529918, 0.0219043688, -0.0024092467, 0.0947866877, -0.1807419945, -0.0340071502, 0.0026963474, 0.0070974961, 0.0049068896, -0.0058501150, -0.0383847592, 0.0681144939, -0.0436305098, 0.0129900802, -0.0247211488, 0.0479680387, 0.0348879195, -0.0086832514, 0.0158647797, 0.0159984271, -0.0481398728, -0.0517970355, -0.0403177174, -0.0169992460, -0.0506767017, 0.0532759298, -0.0200700029, -0.0120354409, -0.0133609684, -0.0548245775, 0.0142419806, 0.0458242911, 0.0201740899, -0.0155344389, 0.0011559730, -0.0049211951, 0.0044712702, 0.0201767830, 0.0270862190, -0.0355096802, 0.0144544114, -0.0688779704, -0.1024992439, -0.0602429683, -0.0349149603, 0.0145913877, -0.0249497597, 0.0243152736, 0.0056120067, -0.0568581150, -0.0098324002, -0.0668723501, -0.0091506167, -0.0705412816, -0.0089532894, 0.0057346602, -0.0441099852, 0.0818598848, -0.0013812527, -0.0257011640, -0.0134609687, -0.0914503449, 0.0068783088, 0.0000000000, 0.0089929009, -0.0336537926, -0.0147140969, 0.0002807147, -0.0150473000, 0.1159351166, -0.0367075000, -0.0307030375, -0.0791866226, -0.0844042131, -0.0611156859, -0.0977111265, -0.0731184150, -0.0754483988, -0.0223917784, 0.0094642316, -0.0045552052, 0.0591337320, -0.0063268741, 0.0147427821, 0.0716466621, -0.0614789867, 0.0201759486, 0.0471345250, -0.0465523835, 0.0075635517, -0.0011577916, 0.0008930222, -0.0067743227, -0.0354307628, -0.0097928298, 0.0267181136, 0.0189051188, 0.0241560182, 0.0289349520, -0.0355225923, -0.0089157119, -0.0759292624, -0.0543668058, 0.0197301816, -0.0052035505, 0.0296659399, -0.0297299239, -0.0162385335, 0.0449749042, -0.0424655169, 0.0132198280, -0.0015277112, -0.0400373433, 0.0638627397, -0.0002945026, -0.0063527770, -0.0424067613, 0.0164218280, -0.0050210224, 0.0049220830, -0.0077337704, 0.0158795221, -0.0048461488, 0.0250507805, -0.0312924840, 0.0414787829, -0.0083394584, 0.0562040998, -0.0219320894, 0.0277358342, -0.0231222270, 0.0016988718, 0.0096091803, -0.0259153182, 0.0651127659, -0.0024920689, -0.0420577607, 0.0230751945, -0.0152961368, 0.0372690338, 0.0311561496, -0.0274509182, -0.0224410957, 0.0544171534, -0.0443528110, -0.0072837238, 0.0031242837, 0.0000000000, 0.0062083619, 0.0035097870, -0.0146569638, -0.0064150085, 0.0144418951, 0.0011885915, -0.0166776295, 0.0250126178, 0.0439720993, -0.0103710183, 0.0706995595, 0.0005202875, 0.0207053079, -0.0401680549, -0.0422780787, 0.0147820660, 0.0354847340, -0.0057660567, 0.0241056849, -0.0327544351, -0.0466932525, 0.0550300691, 0.0264744592, -0.0575825301, 0.0352983957, 0.0007361769, 0.0032332951, 0.0018561390, 0.0011110524, -0.0157358815, 0.0039679217, 0.0179825717, 0.0088476664, 0.0152740688, 0.0001437814, 0.0067280843, 0.0199734614, 0.0144554093, 0.0346404693, -0.0301498000, 0.0092590688, 0.0098495703, 0.0085321568, -0.0315251129, 0.0274821803, -0.0132878312, -0.0002141604, 0.0586570331, 0.0549413431, 0.0174053188, 0.0061484155, 0.0148775358, -0.0098704424, -0.0119007594, 0.0033647548, 0.0018561390, 0.0029462109, -0.0292648544, -0.0352763690, 0.0034250028, -0.0188348430, -0.0401447781, 0.0344213838, -0.0044458509, 0.0331404237, -0.0241669235, 0.0155845913, 0.0429548272, 0.0143421530, 0.0001723104, -0.0145157363, 0.0200708282, -0.0593948231, 0.0730424343, 0.0174181933, -0.0072319698, -0.0118676370, 0.0135236618, 0.0056847933, 0.0030305075, -0.0007325591, -0.0051532304, 0.0033647548, 0.0000000000, 0.0000000000, 0.0248633319, 0.0099522266, 0.0117461733, 0.0278729260, 0.0150216156, -0.0532544814, 0.0264993494, -0.0277375580, 0.0433453298, -0.0070786814, 0.0231447100, -0.0221826652, 0.0401145634, -0.0290887605, 0.0413459022, -0.0186665567, -0.0546983651, -0.0195105604, 0.0355241296, -0.0013676148, -0.0052219353, 0.0175189856, -0.0557212869, 0.0454370370, 0.0005140292, 0.0000000000, 0.0000000000, 0.0000000000, -0.0991121832, -0.0026328134, -0.0280783737, 0.0137604624, -0.0240401398, 0.0195789966, -0.0210086990, 0.0508321134, -0.0189639006, 0.0094558820, -0.0118477030, 0.0167163751, 0.0141797857, 0.0099411654, -0.0271453816, 0.0177158252, 0.0216151567, -0.0281532673, 0.0025481524, -0.0119117487, 0.0062481701, -0.0368376848, 0.0159865101, -0.1100061984, -0.0049767904, 0.0000000000, 0.0000000000, 0.0000000000, 0.0151103245, 0.0057144041, 0.0140282931, -0.0367420416, 0.0066693027, 0.0069605050, -0.0216846591, 0.0207688275, -0.0210705825, 0.0192823597, 0.0021075938, 0.0116656423, -0.0275137685, 0.0200539759, -0.0072146306, -0.0032256487, -0.0030848631, 0.0203097008, -0.0568786684, 0.0050723043, 0.0158541201, 0.0021570584, 0.0307993646, 0.0068366160, 0.0045488062, 0.0000000000, 0.0000000000, 0.0000000000, 0.0000000000, 0.0038677650, 0.0012944756, -0.0361121376, 0.0255275358, -0.1040013682, -0.0547200490, -0.0019412570, -0.0285922319, 0.0005957608, -0.0323641170, -0.0000585752, -0.0402440836, -0.0099537165, -0.0119798154, -0.0170814532, -0.0252835850, -0.0249044318, 0.0424716007, -0.0267421553, -0.0071225292, -0.0007645679, -0.0067315553, 0.0051747661, 0.0000000000, 0.0000000000, 0.0000000000, 0.0000000000, 0.0000000000, 0.0000000000, 0.0052236453, 0.0088141843, 0.0086089118, 0.0197388158, 0.0004647756, -0.0224652265, 0.0097205597, -0.0028104728, 0.0013151859, -0.0157327825, -0.0281487219, -0.0099144661, -0.0221859987, -0.0031703931, -0.0163786012, 0.0110052298, -0.0026737995, -0.0172062939, 0.0042288303, 0.0054235162, 0.0000000000, 0.0000000000, 0.0000000000, 0.0000000000},
   {0.0000000000, 0.0000000000, 0.0000000000, 0.0000000000, 0.0000000000, 0.0000000000, 0.0000000000, 0.0000000000, 0.0000000000, 0.0000000000, 0.0000000000, 0.0000000000, 0.0095743546, 0.0070897544, -0.0003968132, -0.0003968132, 0.0000000000, 0.0000000000, 0.0000000000, 0.0000000000, 0.0000000000, 0.0000000000, 0.0000000000, 0.0000000000, 0.0000000000, 0.0000000000, 0.0000000000, 0.0000000000, 0.0000000000, 0.0000000000, 0.0000000000, 0.0000000000, 0.0070310910, 0.0082055703, 0.0114618429, -0.0119403588, 0.0123010654, 0.0053979679, -0.0023165352, 0.0009603429, 0.0038308673, 0.0092333961, -0.0106556947, 0.0087252264, -0.0097425048, 0.0058408749, 0.0186891929, 0.0114591399, 0.0115079189, 0.0152674190, 0.0137308239, 0.0061184390, 0.0000000000, 0.0000000000, 0.0000000000, 0.0000000000, 0.0000000000, 0.0000000000, 0.0080724179, -0.0090304088, 0.0197532685, 0.0074623683, 0.0007120887, -0.0035014099, 0.0032119155, -0.0044183038, 0.0290064792, -0.0067069388, 0.0260292087, 0.0153596880, 0.0108906109, 0.0000168752, 0.0301815069, 0.0045847740, 0.0229914456, 0.0077985271, 0.0121900520, 0.0351318215, -0.0000668528, 0.0350808018, -0.0134994124, -0.0030899921, 0.0000000000, 0.0000000000, 0.0000000000, 0.0000000000, 0.0035419616, 0.0055642568, 0.0112133360, -0.0210401622, 0.0178769852, 0.0197013111, -0.0036975559, -0.0013767433, -0.0057607735, 0.0081835306, -0.0188132015, 0.0040264757, -0.0107158645, 0.0252139124, -0.0145998023, 0.0120379577, 0.0131401034, 0.0306020580, -0.0029867371, 0.0064755347, 0.0047591798, -0.0020818216, 0.0283807742, -0.0112168765, 0.0132268123, 0.0000000000, 0.0000000000, 0.0081096054, -0.0142858895, -0.0098171030, -0.0011833770, 0.0202579888, -0.0524818014, 0.0195643210, 0.0061242303, -0.0365444842, -0.0052379310, -0.0243462698, -0.0580581824, -0.0194667397, -0.0177548631, -0.0547884726, -0.0201051706, 0.0241049131, -0.0572174782, -0.0063404093, -0.0042632403, -0.0146239666, 0.0027625225, 0.0013344023, -0.0408709680, 0.0065736011, -0.1279722209, 0.0507485459, 0.0000000000, 0.0000000000, 0.0055922821, -0.0304039514, 0.0000281657, -0.0307222816, 0.0410883865, -0.1040763078, 0.0875741237, -0.0979456187, 0.0594208497, -0.1046859420, 0.0339445645, -0.1132187372, -0.0206211514, -0.0414191496, -0.0656517897, -0.0431197056, 0.0533991805, 0.0119323098, 0.0465988155, 0.0299059332, -0.0406079697, 0.0312029508, 0.0347037703, -0.0221314640, -0.0004416448, -0.0158133563, 0.0000000000, -0.0013791331, -0.0037376750, 0.0146116242, -0.0107594550, -0.0057468306, -0.0205257248, 0.0292919124, -0.0462866095, 0.0183239035, -0.0789111726, -0.0281374193, -0.0146555453, -0.0068208613, -0.0792394528, -0.0034988467, -0.0703130448, -0.0076252988, -0.0977642615, -0.0632411834, -0.0820791518, -0.0417971491, 0.0176418775, -0.0001730821, -0.0867515863, 0.0367847004, -0.0311798474, 0.0395151564, 0.0031181507, 0.0211829840, -0.0098192939, -0.0712549065, 0.0221832487, 0.0892599978, -0.1097965860, 0.0662824039, -0.0482200754, 0.0310807545, -0.0011723521, -0.0384178058, -0.0511373088, -0.0592671527, 0.0037361546, -0.0343989878, -0.0652986456, -0.0366178759, -0.0306044447, -0.0233059266, -0.0472368176, -0.0166448090, -0.0934160604, -0.0638706109, 0.1196587102, -0.0067680145, -0.0166217270, -0.0236541439, 0.0050565990, 0.0059217136, 0.0163649318, -0.0585094271, -0.0787169546, -0.0409989915, -0.0116296846, -0.0250435840, -0.0760889546, -0.0673677991, -0.0244829242, 0.0026920470, -0.0466172790, -0.0180281415, -0.0610550605, -0.0732175411, -0.0294746070, -0.0512982843, -0.1390156083, -0.1185797358, -0.1600076766, -0.0555930899, -0.0148116363, -0.1372257295, -0.1590611511, -0.0298438293, 0.0488653638, -0.0012616790, -0.0007802549, 0.0066494957, 0.0571643237, -0.0320887484, 0.1156016575, -0.0254699374, -0.0564545863, 0.0685865156, 0.0675653137, 0.0002745398, -0.0319399718, -0.0271356262, 0.0070742483, -0.0856116132, -0.0033029612, -0.0923265595, -0.1014801855, -0.1319234583, -0.1045433547, -0.0644725625, -0.0124634552, -0.0113319905, -0.0702952234, 0.0387911645, -0.0398530214, -0.0660141207, -0.0578614711, 0.0192581450, 0.0034464908, 0.0154009663, -0.0469202473, -0.0542929483, -0.0436903231, -0.0653226839, -0.0152974695, -0.0563940934, -0.0146332598, -0.0445053037, -0.0384024105, -0.0051357293, -0.0505741035, 0.0115587931, -0.0495501379, -0.0171573303, -0.0459310979, -0.1025935511, 0.0063268082, -0.1471457751, -0.0179002074, -0.0598891138, -0.0994693900, 0.0004168114, 0.0352203610, -0.0309945411, 0.0150334555, -0.0879510945, 0.0082360334, -0.0009875231, 0.0813674335, 0.0134423475, 0.0020957813, 0.1665558661, -0.0212453427, 0.0281301075, -0.0330324341, 0.0082736018, 0.0298974821, -0.0612398444, 0.0190269728, 0.0535273501, 0.0088940859, -0.1144650833, 0.0404189926, -0.0757503471, -0.0507162542, 0.0565799328, -0.0493767668, 0.0262828147, -0.0173696483, 0.0565213256, -0.0176012859, -0.0140676656, -0.0235443454, 0.0621710727, 0.0050783428, 0.0053892660, -0.0536668785, -0.0524158375, -0.0335018864, -0.1363979916, 0.0055761389, -0.0063726173, 0.0677970916, 0.0471847804, -0.0623844195, 0.1014447381, 0.0066635352, 0.0054398701, -0.0008275466, -0.0625095552, -0.0133266342, 0.0442902069, -0.0144807944, -0.0596758660, -0.0472290002, 0.0284010125, 0.0600944082, -0.0086772864, 0.0086947767, 0.0112516192, -0.0245620294, -0.0477273021, 0.0027096200, -0.0025338808, -0.0182854137, -0.0673268855, 0.0194992287, 0.0847224047, 0.0954391758, -0.0224868738, -0.0344000836, 0.0011023720, 0.0883270323, -0.0411912805, 0.0426392226, 0.0036371034, -0.0341697155, 0.0961119754, -0.0456460638, -0.0214149185, -0.0195905873, 0.0071327931, 0.0020165673, 0.0620147241, -0.0676252028, 0.1060388355, 0.0076833947, -0.0252909199, -0.0153241522, 0.0142149384, 0.0000363362, -0.0041580382, 0.0689371785, 0.0856942685, -0.0646274523, -0.0080446787, 0.0101338774, 0.0430879546, 0.0519589233, 0.0436456743, 0.0172509973, 0.0901277038, 0.0230288118, -0.0133827527, -0.0191083940, -0.0302856014, 0.0577042975, -0.0564508609, -0.0022188648, 0.0024044528, -0.0103326856, -0.0455386443, 0.1118304400, -0.0165531381, -0.0050165933, 0.0222210634, -0.0162918114, -0.0057305727, 0.0014875443, -0.0020569489, -0.0293117775, -0.0233288708, -0.1224511654, -0.0316834034, -0.0095871567, 0.0372834785, 0.0152276784, 0.0162996326, 0.0342472103, 0.0304212833, 0.0193600083, -0.0040245176, 0.0824453373, 0.0213223287, -0.0288901563, 0.0297378993, -0.0036561230, -0.0590215889, 0.0912065047, 0.0712252675, -0.0744613606, 0.0338140152, -0.0366511524, 0.0173910526, -0.0143098840, 0.0061091608, 0.0078101234, 0.0048698116, 0.0389260781, -0.0593881773, 0.1283224879, -0.0316796896, 0.0430256924, 0.0466019838, -0.0739124502, 0.0934259004, -0.0279322275, 0.1183606547, -0.0511049807, -0.0306781290, -0.0087366528, 0.0251191740, 0.0059981371, -0.0568286559, -0.0134001292, 0.0299613825, -0.0615045526, -0.0115545195, 0.0372297789, -0.0508504761, 0.0171865781, -0.0178840780, -0.0168806519, -0.0015292365, 0.0000000000, 0.0067341729, 0.0057212123, 0.0501790153, -0.1984123702, 0.0883871596, -0.0663721804, -0.0508395245, 0.1352272486, -0.0287595548, 0.0998756510, 0.0819837530, -0.0094462857, 0.0166908512, 0.0773114694, -0.0677540286, -0.0456106051, 0.0296370710, 0.0188399551, 0.0403592793, 0.0671924907, -0.0252644905, 0.0265554505, 0.0199488739, 0.0141936583, -0.0166183183, -0.0222614001, -0.0105018181, 0.0079531704, 0.0039038809, -0.0134948530, -0.0036426127, 0.0299457879, -0.0946176455, -0.0287790393, 0.1206618031, -0.0580805800, 0.0624808031, 0.0279394171, 0.0101740180, 0.1095743566, 0.0200309846, -0.0287452665, 0.0387306343, 0.0502072094, -0.0017545380, 0.0557168682, -0.0394650871, -0.0326234983, 0.0242120860, -0.0407817121, 0.0194521529, -0.0618925019, 0.0214886761, 0.0165509743, 0.0013292986, 0.0011954631, 0.0083954715, 0.0749451133, -0.2893549092, -0.0101558458, 0.0214753895, 0.0159651878, -0.0444263948, 0.0273220453, 0.0302892499, 0.0506040641, 0.0992684960, 0.1011855996, 0.0073791290, 0.0351315466, 0.0447880752, 0.0157562868, 0.0441396390, -0.0016922118, 0.0492996591, 0.0232912234, 0.0047644613, 0.0243642558, -0.0099825234, -0.0049463504, -0.0215872791, -0.0428231284, 0.0023512393, 0.0000000000, -0.0031727017, 0.0295907028, -0.0313514642, 0.0592552029, -0.0047995674, -0.0574266012, 0.0212271779, -0.0286150655, 0.0221140592, 0.1009748442, -0.0283914419, 0.0901802237, -0.0228906036, 0.1256429705, 0.0015083334, 0.0661691341, -0.0475540087, 0.0396691544, -0.0155963381, -0.0236947238, 0.0011040925, -0.0424861737, 0.0143273181, -0.0436498326, 0.0054302404, 0.0144496681, 0.0053938664, 0.0029401853, 0.0218198439, -0.0091393121, -0.0168650202, -0.0450205997, -0.0711361617, -0.0805620811, 0.0035712911, 0.0376147446, -0.0026788699, -0.0100100380, 0.0776195886, 0.1010069072, 0.0817568284, 0.1012108548, 0.0440794019, 0.0135622985, 0.0757377162, 0.0251064406, -0.0024376255, 0.0597228860, -0.0934496899, 0.0403089934, -0.0411826118, 0.0480596871, -0.0340386561, 0.0091036825, 0.0032858556, 0.0029401853, 0.0023002352, -0.0109220799, -0.0196003539, 0.0112894077, 0.0065453189, -0.2026089483, 0.1220419766, -0.0355654510, 0.0210849863, 0.0651557827, -0.0180302007, 0.0199528709, 0.0181864411, -0.0263141277, 0.0913463473, -0.0037781875, 0.0564914447, -0.0359542059, -0.0105668772, 0.0219215672, 0.0551711062, -0.0111714270, -0.0092238875, -0.1357027057, -0.0233074205, 0.0250665338, 0.0032858556, 0.0000000000, 0.0000000000, 0.0145687763, 0.0141215219, 0.0434405444, 0.0594399372, -0.0173183548, -0.0927713646, -0.0379218330, 0.0257195508, -0.0821442359, -0.0587086163, -0.0235689691, 0.0082246560, -0.0225466744, -0.0236241179, 0.0173279340, -0.1009183682, 0.0881358385, 0.0149766315, -0.0030613522, -0.0350781161, 0.0101425002, -0.0767230318, 0.0315796536, -0.0629288504, -0.0513647189, 0.0000000000, 0.0000000000, 0.0000000000, -0.0190689333, 0.0348230331, 0.0179225365, 0.0052272391, 0.0015077321, -0.0720405756, -0.1033686745, -0.0406347831, -0.0981367855, -0.1232731525, -0.0290465552, -0.0888380381, -0.0311570794, -0.0994641051, 0.0401786269, 0.0033488868, 0.0038415189, -0.1058601624, -0.0070767539, -0.0676582786, -0.0025802200, 0.0268250521, 0.0119712542, 0.0111741357, -0.0015174160, 0.0000000000, 0.0000000000, 0.0000000000, 0.0111333207, -0.0003329135, 0.0076939771, 0.0349340416, 0.0464679416, 0.0515948663, 0.0199537486, -0.0117767223, 0.0494320397, 0.0381661620, 0.0034404939, -0.0902942405, -0.0838906028, -0.0425090663, -0.0944448259, -0.0200847954, -0.0146869699, 0.0198790994, 0.0057172513, 0.0527964519, 0.0245476047, 0.0107901496, -0.0017634223, 0.0071193274, -0.0027892414, 0.0000000000, 0.0000000000, 0.0000000000, 0.0000000000, -0.0065846945, 0.0194224689, -0.0032455032, 0.0088922918, 0.0601055579, 0.0157223175, 0.0532744220, -0.0215375123, 0.0014802981, 0.1005219630, 0.0984363026, 0.0675102226, -0.0420473769, 0.0603326674, 0.0124339917, 0.0160841704, 0.0103261327, 0.0003896491, -0.0114011866, -0.0197073972, 0.0059860622, -0.0001052577, 0.0081753285, 0.0000000000, 0.0000000000, 0.0000000000, 0.0000000000, 0.0000000000, 0.0000000000, 0.0006073493, 0.0106396843, 0.0136567157, 0.0039508516, 0.0257267041, 0.0190133785, -0.0224601410, 0.0363651205, 0.0339503000, 0.0064700051, 0.0208164814, 0.0254776525, 0.0511655487, -0.0193808360, 0.0253625765, -0.0113730885, 0.0223738122, 0.0028808981, 0.0055696680, 0.0093859159, 0.0000000000, 0.0000000000, 0.0000000000, 0.0000000000},
   {0.0000000000, 0.0000000000, 0.0000000000, 0.0000000000, 0.0000000000, 0.0000000000, 0.0000000000, 0.0000000000, 0.0000000000, 0.0000000000, 0.0000000000, 0.0000000000, 0.0094088179, 0.0078211637, 0.0010769889, 0.0010769889, 0.0000000000, 0.0000000000, 0.0000000000, 0.0000000000, 0.0000000000, 0.0000000000, 0.0000000000, 0.0000000000, 0.0000000000, 0.0000000000, 0.0000000000, 0.0000000000, 0.0000000000, 0.0000000000, 0.0000000000, 0.0000000000, 0.0070647748, -0.0013709664, 0.0121944468, -0.0410218723, -0.0014308863, -0.0127561637, 0.0006992103, 0.0431041105, -0.0543765619, -0.0196698168, 0.0078016344, -0.0033122493, -0.0040011326, -0.0066087903, 0.0231012509, -0.0143155237, 0.0080564197, 0.0061954315, 0.0066047620, -0.0091636765, 0.0000000000, 0.0000000000, 0.0000000000, 0.0000000000, 0.0000000000, 0.0000000000, 0.0124521022, 0.0033338400, 0.0154088413, 0.0160822346, -0.0001913117, -0.0102826431, 0.0270387003, 0.0613709634, -0.0206519709, -0.0363215619, 0.0905726074, 0.0295187715, 0.0584137830, 0.0619208857, 0.0354170623, 0.0284427832, 0.0880151551, 0.0380948292, 0.0410131043, 0.0395573481, 0.0041837450, 0.0069403129, 0.0000617512, 0.0188369258, 0.0000000000, 0.0000000000, 0.0000000000, 0.0000000000, 0.0108535290, -0.0176450684, 0.0230360777, -0.0218449456, 0.0433820265, 0.0283348727, -0.0041006802, -0.0341223991, 0.0952732347, -0.0592771768, -0.1081802418, -0.1911595237, -0.0309646889, -0.1275551399, 0.0190416602, -0.0486927037, -0.0865156871, 0.0993868473, -0.0340818466, -0.0657625592, 0.0636159619, -0.0236507376, 0.0164747236, 0.0207647180, 0.0122163970, 0.0000000000, 0.0000000000, 0.0103159798, 0.0057722242, 0.0400280635, 0.0354122582, -0.1243754537, -0.0249628187, -0.0863152020, -0.0508319342, -0.0302916525, -0.3176723170, -0.0630826028, 0.0228319056, 0.0194818759, -0.0895814897, -0.0725355109, -0.1233775030, -0.0873099853, -0.1749848233, -0.0506856310, -0.0410288741, 0.0865207555, -0.0557586335, 0.0518989588, 0.0134529503, -0.0041375981, 0.0196487468, -0.0012863796, 0.0000000000, 0.0000000000, 0.0087569308, -0.0406550779, -0.1143292898, 0.1347151417, -0.0390025769, -0.0097743530, 0.0333449049, 0.0479176110, -0.0176318396, -0.0519224831, -0.0081269104, -0.0280812701, 0.0129679346, -0.0518852866, 0.0046025628, -0.1825575774, -0.0222012278, -0.1994546900, -0.1422851441, -0.0431926429, -0.1155398083, -0.1658398570, 0.1000097160, -0.0151369267, -0.0043383718, 0.0132745440, 0.0000000000, 0.0017426929, -0.0020978298, 0.0289583384, 0.0028466665, -0.0189123934, 0.0393197931, -0.0361507592, 0.0740249734, -0.0281925432, 0.0330722662, 0.0552383189, 0.0457261443, -0.0485270901, 0.0277333989, -0.0413996901, 0.0113152317, 0.0269394882, -0.0212232187, 0.0340213221, -0.0573302793, 0.0238894555, 0.0129686951, -0.1280093735, 0.0049769470, -0.0476547565, -0.1176173442, 0.0218698069, 0.0094909385, 0.0070289987, -0.0115929784, 0.0085218602, -0.0029711212, -0.0043671801, 0.0265004762, 0.0357379605, -0.0474193834, 0.0647172467, 0.0640702812, 0.0015993434, 0.0517723950, 0.0347327970, -0.0432858364, -0.0153333038, -0.0016965045, 0.0347702362, 0.0435574182, -0.0190454308, 0.0447433452, 0.0755817141, -0.0170272810, 0.0286988150, 0.0095741441, -0.0183500223, -0.0005236853, -0.0076677669, -0.0130876384, 0.0215871790, 0.0210386121, 0.0133747371, -0.0063561981, -0.0002287695, -0.0098366234, 0.1121261318, 0.0492812132, -0.0080895067, 0.0320635923, 0.0494349696, 0.0617547244, -0.0077937401, 0.0038817152, 0.0597354350, 0.0144298006, 0.0107214816, 0.0378886935, 0.0247082144, 0.0429990818, -0.0492566579, 0.0113439011, 0.0395132362, -0.0496821710, -0.0365096221, -0.0187623763, 0.0124372018, 0.0177766291, 0.0095070846, -0.0141740258, 0.0036020937, 0.0407895795, 0.0165818525, 0.0003325357, -0.0365559707, 0.0352751844, 0.0462608330, -0.0207229502, -0.0085820719, 0.1458463187, -0.0163418486, 0.0988698064, 0.0060470552, 0.0166878051, 0.0919045647, 0.0442188957, 0.0137771821, -0.0285899457, 0.0545107455, -0.0191003669, 0.0253153611, 0.0222987868, -0.0311222889, -0.2739898522, 0.0795020633, 0.0168702780, -0.0113345260, 0.0391966557, -0.0205701434, 0.0287679031, 0.0185314370, 0.0150847786, 0.0452525289, -0.0270575302, 0.0382750089, -0.0040115311, -0.0260026098, -0.0637331230, 0.1488904783, -0.0149603175, 0.0720094506, 0.1067531736, 0.0081017729, 0.0158115600, 0.0494465945, 0.0676016124, 0.0056092014, 0.1087337829, -0.0254809692, -0.0407794826, 0.0309551953, -0.0026870864, 0.0120896229, 0.0104284908, -0.0222456614, 0.0365421408, -0.0053274633, -0.0032307255, 0.0226444710, -0.0040358919, 0.0102081387, -0.0932278890, 0.0076647386, 0.0566652594, 0.0577747482, -0.0553272877, 0.0761034867, 0.0556753479, 0.0516066879, 0.0053561935, 0.0346924046, 0.0465484997, 0.0064886801, 0.0510715791, -0.0288942121, 0.0313170104, -0.0493561572, 0.0533610012, -0.0582578478, -0.0721079414, -0.1200833463, 0.0065848593, 0.1104589948, 0.0099981454, 0.0220997560, 0.0246952439, 0.0043538898, -0.0740880514, 0.0573403416, 0.0944577836, -0.0277159056, -0.1001368954, -0.0012644968, -0.0648349822, -0.1562470703, -0.0776223288, 0.0672589229, 0.0629841513, 0.0400427060, 0.0504495914, -0.0017402742, -0.0224259232, -0.0742472371, 0.0535681351, -0.0521094121, -0.1121972459, 0.0064951454, -0.0318802404, 0.1023340446, 0.0002364286, -0.0488832659, 0.0037718131, 0.0184080814, -0.0165441893, -0.0020864025, 0.0629500461, -0.0578246787, -0.0926111280, -0.0349832190, 0.0091960329, -0.0045259636, -0.1198853603, -0.1213867311, -0.1270282559, -0.0143317800, -0.0049009786, 0.0017055939, -0.0721945592, -0.1079221526, 0.0067412521, 0.0545587734, 0.0099609986, -0.0817316967, 0.0792422138, -0.0180976490, 0.0428617478, -0.1517316695, 0.0014155297, 0.0153259775, 0.0373198810, -0.0208517984, 0.0177419116, 0.0284722670, -0.0879868504, 0.0233950827, 0.0475945453, -0.0473687092, -0.0370423802, -0.0673164641, -0.1342587713, -0.0401788965, -0.0587894407, -0.0348539898, 0.0127699827, -0.0207627900, 0.0357942757, 0.1742974884, 0.0274116697, -0.0359193961, 0.0152216602, 0.0700492461, -0.0365655984, 0.0051363465, -0.1879587896, 0.0207771953, 0.0034996018, 0.0165771392, -0.0269222639, 0.0505623364, -0.0258411080, -0.0181480439, -0.0018788738, -0.0501845237, -0.0808934819, -0.0474579556, -0.0308730118, -0.0608937074, -0.0466362745, -0.0862050831, -0.0521563894, 0.0253049420, -0.0792384361, 0.1043463050, 0.0426991725, -0.0573136112, 0.0584649496, 0.0503727678, 0.0760585149, 0.0155822203, -0.0169205982, -0.0233638486, -0.0149795817, 0.0101181224, 0.0113438856, -0.0022738056, -0.0262413207, -0.0550058123, 0.0146786489, -0.0473428135, -0.0098938188, 0.0882411254, -0.0640564919, 0.0360246478, -0.0411869976, -0.1668404229, 0.0282079820, -0.0093182225, -0.0926208718, 0.0417143576, 0.0136481860, 0.0113508562, -0.0015036331, 0.0531919318, 0.0292918339, 0.0128011281, -0.0114579974, -0.0200448719, 0.0014813148, -0.0892123021, -0.0846413008, -0.0059861793, 0.0000000000, 0.0098691471, -0.0301984141, 0.0368038537, -0.0005514947, 0.0145838119, 0.0163849939, -0.0747779569, -0.0491311922, 0.0236113348, -0.1743772270, 0.0412995215, -0.0093300486, -0.0446496264, 0.0060374572, 0.0054543474, -0.0351960309, 0.0265839642, 0.0713495165, -0.0542817273, 0.0911515005, -0.0892768476, 0.0092895345, -0.0311199288, 0.0407076617, 0.0123019740, 0.0253485499, -0.0151189146, 0.0031380030, 0.0025524577, 0.0179378160, -0.0414915925, -0.0311233500, 0.1301520680, -0.1940898861, 0.0560519501, -0.0120277782, -0.0690814512, -0.0337537807, 0.0078885342, -0.0594994387, 0.0775317122, -0.0388386243, -0.0431933738, -0.0056799661, -0.0820138789, 0.0464334466, -0.0317760234, -0.1133913649, 0.0590474189, -0.0078489685, -0.0039909608, -0.1091602591, -0.0585634302, 0.0293002870, 0.0188199496, -0.0031849720, 0.0206055938, 0.0574772959, 0.0504564813, 0.2131618694, -0.1903990470, 0.0091553553, -0.1621964613, 0.0175546085, -0.0220405139, -0.1505116819, 0.0283508206, 0.0382396353, -0.0334977176, 0.0465607346, -0.0482579039, -0.0627576908, 0.0146298380, -0.1174955327, 0.0072786670, 0.0877441105, -0.0872739923, 0.0333700048, -0.2755418972, 0.1470020266, -0.0579227121, 0.0151181116, -0.0161867393, 0.0000000000, 0.0037362963, -0.0035924431, -0.1505251035, -0.4489498405, -0.0402641797, -0.0689319283, -0.2464202716, 0.0596295071, -0.1565858812, 0.0249268768, -0.0158051248, 0.0353264210, -0.0531484139, 0.0071922791, 0.0050842939, -0.0849148694, -0.1128588104, -0.1586142255, -0.0308678233, -0.2482301016, 0.0729442277, -0.1649229431, -0.0012962367, 0.0552748950, -0.0467688676, 0.0187329029, 0.0079972578, 0.0022777604, 0.0148665540, 0.0069117590, -0.0555785594, 0.1961589413, 0.1468789313, -0.1632443294, -0.0453970927, -0.0022389358, -0.0553198925, -0.0022671805, 0.0026495429, -0.0022307814, -0.0127398538, -0.0517094262, -0.0490737554, -0.0165015962, -0.0351441294, 0.0367830494, -0.1656582579, -0.0201013445, -0.1386049504, 0.0157766941, -0.0878776355, -0.0442649304, 0.0904083478, -0.0063173312, 0.0072100385, 0.0022777604, 0.0011454285, 0.0304189254, -0.1255683129, -0.1787190992, 0.0540571804, -0.0789272748, 0.0329742807, 0.0654037836, -0.0169014478, -0.0067644944, -0.0946936945, 0.0504967052, -0.0342536327, -0.0003918560, 0.0494303146, 0.0109286352, -0.0461022058, -0.0525175416, 0.1168383656, -0.0560909338, 0.0806081355, -0.0511167111, -0.0709562900, -0.0707569122, 0.0102060854, -0.0385816670, 0.0072100385, 0.0000000000, 0.0000000000, 0.0045270886, -0.0870028420, 0.0697790900, -0.0343347096, -0.0198702425, 0.0673458239, -0.1554667423, -0.0199258496, -0.0375441501, -0.0422735405, -0.0520642379, -0.0355871927, -0.0395389969, -0.0900310840, -0.0148043034, -0.0295599890, -0.0320355952, -0.1125671621, -0.0016838023, -0.1519576293, 0.0100963358, -0.0993615195, 0.0133262232, 0.0377111134, -0.0061551194, 0.0000000000, 0.0000000000, 0.0000000000, 0.0023406795, -0.0080717238, -0.0183656929, 0.0429852608, 0.0324329902, 0.0060323998, 0.0324255384, -0.0272009887, -0.0086902705, -0.0252019827, -0.0658260436, 0.0215135091, -0.0128622303, 0.0309441399, -0.0214898865, 0.0338019963, -0.0570255934, 0.0241030013, 0.0162080900, -0.0267401149, 0.0131033931, 0.0078613648, -0.0170131239, -0.0062580172, 0.0155258806, 0.0000000000, 0.0000000000, 0.0000000000, -0.0193180781, 0.0149446337, 0.0103104651, -0.0129660223, -0.0119449605, -0.0048567164, -0.0012155068, 0.0250109187, -0.0152909102, 0.0385561820, 0.0357639718, -0.0041571307, 0.0139982291, 0.0030101661, -0.0067889449, -0.0032235841, 0.0071908558, -0.0265544404, -0.0027083836, 0.0180074077, -0.0048678872, -0.0553414554, 0.0134885517, -0.0094833581, 0.0138787943, 0.0000000000, 0.0000000000, 0.0000000000, 0.0000000000, 0.0023121085, -0.0028911661, -0.0131936410, -0.0008616702, 0.0010240382, 0.0013229221, 0.0005819439, 0.0048297537, -0.0055225296, -0.0171202685, 0.0096681067, -0.0097273217, 0.0150105261, 0.0053962324, 0.0008593412, 0.0106323293, 0.0136273063, -0.0222352825, 0.0019544215, 0.0145635508, 0.0003072843, -0.0623934701, 0.0058925411, 0.0000000000, 0.0000000000, 0.0000000000, 0.0000000000, 0.0000000000, 0.0000000000, 0.0141513975, 0.0164585269, -0.0030418931, -0.0054696360, 0.0077480503, -0.0140779010, 0.0169372314, -0.0054966109, -0.0062111416, 0.0329891456, -0.0047537932, 0.0192795918, -0.0157405197, 0.0445675023, -0.0076866026, 0.0179343068, -0.0111146832, 0.0162087033, -0.0103976187, 0.0222661644, 0.0000000000, 0.0000000000, 0.0000000000, 0.0000000000},
